6.292877058813617364e-02
-2.049005219937146682e-01
2.149846810048531426e-02
1.292902497201958711e-01
-8.029608965003549870e-02
1.240452067911599204e-01
9.111515649693678609e-02
-1.914933207161987130e-02
3.484778613084942023e-02
2.790378687269148839e-01
1.412244311608115976e-01
3.511865978500175456e-02
6.733931588721051020e-02
-2.238135247083831991e-01
-1.454853628894316464e-01
2.547690736976326170e-02
4.806783015665520159e-02
6.342768254352795787e-02
6.685382117470058116e-02
7.659159894224948232e-04
-1.652076025739543097e-01
1.404506770844424768e-01
-1.100122268782921867e-02
2.202449245483973847e-02
-6.743467707274808376e-02
1.891283924908762348e-01
7.109367721639171800e-02
-6.504422236239543187e-02
1.426955355560610428e-01
1.391130396568536487e-01
-3.616115903305090751e-02
4.130913035832532720e-02
2.284154454808735024e-01
6.263262718583685607e-02
3.022800542728498741e-01
-9.408623802052254112e-03
2.115085332086225761e-02
1.401570399928893651e-01
4.081330240729968278e-02
1.575284541017828166e-01
2.145919075912713220e-02
3.181910860427361598e-02
1.479967675996503029e-01
5.681447956391757342e-02
-7.616688514234332130e-02
1.598221330078843372e-01
-2.091609753756500656e-01
-6.169167790499288651e-02
-3.089169559986429045e-02
-4.578723264531137267e-03
9.140958733743971554e-02
1.540488765814279903e-01
-2.517495268212219944e-02
-1.339751518650982576e-01
4.716282593519706412e-02
1.636854313336421479e-02
2.988707920888609461e-03
1.348178629011361207e-01
-2.026803011038329216e-01
7.519258664239288070e-02
1.073584223133835225e-01
2.598804906285459571e-01
6.520615095222173641e-02
-1.652485232791061909e-01
-4.194133091612275988e-03
-1.166078794801600760e-01
5.012232601362338891e-02
1.826915942529901415e-01
3.646713812843931091e-02
1.763490734023900539e-02
2.016901398199801576e-01
-2.645952407716043245e-03
-6.196074904801797921e-03
-1.078129082558666046e-01
-2.529241380891682489e-01
3.776654442653634702e-02
-5.740616893807780341e-02
-1.720233546007346737e-01
-1.280576053704604034e-01
1.217289022499303819e-01
-1.405448097724132095e-01
