0.000000000000000000e+00
2.752894823160166246e-02
2.777467032143703801e-02
-4.334087436772610623e-03
-4.464334554348558734e-03
-4.378167541096425128e-03
0.000000000000000000e+00
0.000000000000000000e+00
2.781591655264996701e-02
0.000000000000000000e+00
2.583826480201680334e-02
2.816377933912793050e-02
0.000000000000000000e+00
-4.451894037195025348e-03
-4.460534895924276114e-03
-4.458718897307401528e-03
2.812440626356389056e-02
2.772067716733817369e-02
2.928166127740408631e-02
-4.447789884996656423e-03
-4.455450397823324318e-03
-4.458681407248243737e-03
2.546639412320583773e-02
0.000000000000000000e+00
2.704317145808676770e-02
-4.458675937290278862e-03
1.834295066270566835e-02
0.000000000000000000e+00
-2.153477414619265132e-03
2.619806192435312348e-02
0.000000000000000000e+00
2.872001051317769199e-02
-4.457147013095144605e-03
-4.466735464370562292e-03
2.840318250834880653e-02
2.093241106172853000e-02
-4.467062383416102629e-03
0.000000000000000000e+00
2.912677301743476013e-02
-4.446992281992151290e-03
2.204391613819340484e-02
-4.457396996671417894e-03
-4.459947148339741228e-03
-4.455015618741899400e-03
1.963432127386402840e-02
-4.441971974689723317e-03
2.662353313771799110e-02
0.000000000000000000e+00
2.895820112874738714e-02
0.000000000000000000e+00
2.047539920091248286e-02
0.000000000000000000e+00
-4.441671757700074025e-03
0.000000000000000000e+00
-4.347972627183350688e-03
2.747042044210674244e-02
0.000000000000000000e+00
0.000000000000000000e+00
-4.453816583212161923e-03
-4.118667408038911154e-03
0.000000000000000000e+00
-4.455978975190993258e-03
-4.457662585509195204e-03
-4.456927265479284674e-03
-4.469420793058013347e-03
-4.447527314223668517e-03
0.000000000000000000e+00
-4.463941481652049757e-03
2.971138561919929935e-02
0.000000000000000000e+00
-4.449972908043778146e-03
2.676943877753589288e-02
-4.467797182795608425e-03
-4.317267499966488849e-03
-4.437012368441205223e-03
0.000000000000000000e+00
0.000000000000000000e+00
2.323098965852182785e-02
2.818489724170255076e-02
2.779912759364352309e-02
-4.454600102551499810e-03
1.923679157850490332e-02
0.000000000000000000e+00
0.000000000000000000e+00
0.000000000000000000e+00
2.175190618075829516e-02
2.825816525998072620e-02
0.000000000000000000e+00
-4.438135816557807652e-03
2.767946839731245945e-02
0.000000000000000000e+00
2.752682953838067603e-02
2.652880554980460021e-02
2.837474505992045037e-02
0.000000000000000000e+00
-4.457768024030573512e-03
-4.463050860440583023e-03
-4.464603338746164080e-03
-4.312380387300494833e-03
-4.444407049599881539e-03
-4.457840164708194372e-03
0.000000000000000000e+00
0.000000000000000000e+00
-4.456725171352155478e-03
2.795768178111211408e-02
2.736933682693850137e-02
-4.445752972069529768e-03
0.000000000000000000e+00
-4.454139251370558238e-03
-4.468084516614773301e-03
-4.464234233216317002e-03
0.000000000000000000e+00
2.814203914105316978e-02
0.000000000000000000e+00
1.649437852183737591e-02
2.740778010893424668e-02
-4.463794070030641103e-03
2.902852797411017982e-02
-1.003547987121808155e-03
-4.446047430044071380e-03
0.000000000000000000e+00
0.000000000000000000e+00
-4.468819570521026865e-03
-4.453936761827040174e-03
0.000000000000000000e+00
2.042227226273467949e-02
-4.449793428104589603e-03
0.000000000000000000e+00
