9.701353443190924297e-03
-7.332758843036555479e-03
-1.929427420901479954e-03
-9.548130678049358139e-03
-4.825569566214579602e-03
-2.657210242443363256e-03
1.576384774934951744e-02
-8.118184433959559770e-03
-4.398779342346136913e-03
6.309498853611880155e-04
1.032433340259104014e-03
-6.664268094897863107e-04
3.758933029454058876e-03
7.247994207358663885e-03
1.680692078231131939e-02
3.588518339008757441e-04
-6.610790118660451326e-03
-1.961053336636313371e-02
1.048485454576398787e-02
1.252521253393620252e-03
-1.808911504142053303e-02
1.214843427729449948e-02
1.747137557689872056e-02
1.559263550655236308e-02
6.931112403076295121e-03
-7.326361847904577264e-03
-4.482849229123771727e-03
1.005439334208009169e-02
-1.624840255283432205e-02
1.495211446391839054e-03
1.426947172933323328e-02
7.419046443098994449e-03
-4.182794532923334030e-03
8.833832841412161963e-03
-2.833590786865578318e-02
7.450260761700850179e-03
1.372243218103510673e-02
-8.839556804034035681e-03
1.065731903275387790e-02
3.369158328469353848e-03
-7.697408917259541093e-03
-1.792240298640065434e-03
-1.839896670269906137e-02
-8.131150861503256069e-03
-1.961672118751612431e-02
-1.636017688191574240e-02
3.978938569361093434e-03
-1.891787337298010338e-02
-1.321454701515710831e-02
1.803112537001876417e-02
9.839076516717981322e-04
-2.055785008045579038e-03
-8.384527282440700294e-04
-3.852007808130341465e-03
5.266246891489781770e-04
-1.068451529857568014e-02
1.542089240717167860e-02
2.247823024839868539e-02
2.960469374545493006e-03
2.734312947726656728e-03
-1.963594327149850542e-03
-1.855198325453212907e-02
-2.539235581258623281e-02
-1.291856371712939155e-03
7.590469389994993626e-03
9.338856080917843153e-03
2.253235020975168090e-02
1.295864645569239429e-03
-1.980909248813510215e-02
1.124942356576929398e-02
9.779313993636483404e-03
-3.369193569393174464e-03
5.111718761837647992e-04
2.189670711131951400e-02
-5.618366518946413257e-03
-1.266366499854717186e-03
1.873293695521078411e-02
-5.059352405208064618e-03
-9.799000042593335527e-03
-1.799927853111052758e-02
7.027961744169397215e-03
4.777495242415863083e-03
-2.974968396741124038e-03
2.174329694752062669e-02
2.553062940979454118e-02
-2.738431570059323469e-03
-1.645840377950939445e-02
9.499186892630163970e-03
-6.136012219742636997e-03
-1.552651030937664441e-02
9.819572695152060417e-04
-3.575254523884401070e-04
-1.632410561516879979e-02
-2.661756833867626182e-02
-7.333193451087167622e-03
2.808480764807772586e-03
-1.041801555236253861e-03
5.552556512998083407e-03
2.659552640680443517e-03
3.630245072702033889e-03
1.638607189850975476e-02
-3.223244936329032646e-03
5.223860459077677224e-03
5.067378874725809133e-03
-1.112114600247646190e-02
1.212133398788143787e-03
2.786028367464308837e-03
4.810179902488428104e-03
2.751682706729392976e-03
4.317700062663544329e-03
-3.452447822411988318e-03
2.131326423755264612e-02
-1.101265761657263531e-02
8.783236138678630900e-03
-3.614967390035655863e-03
2.993565859779949608e-03
-2.113874805100550425e-03
4.110920415696417939e-03
2.010432162063801459e-02
-4.015374995370728922e-03
7.812873684785540465e-03
-3.301819815312929257e-03
-4.604045958592978618e-04
-1.770025837939273247e-02
1.266151050519196894e-02
5.344550804701674214e-03
-6.842879576623990372e-03
-1.247004237264447840e-02
2.812959596029206144e-02
-5.079195334813525753e-03
2.862550106022716812e-04
9.527460480362768408e-03
-5.522193032333507293e-03
-1.857091954600915626e-02
1.899444024122869459e-02
2.149675852820647198e-03
1.058065489986841946e-02
1.152440510207811478e-02
1.144718962922207199e-02
3.430216358538284820e-03
6.439258177883943474e-03
2.073639368514584684e-03
-2.174726360857680198e-03
-2.735465931200559142e-02
-2.182811537131992136e-02
1.617648600914125059e-03
-1.957213786071414913e-02
-4.131434645485336857e-04
-4.486722250536657672e-03
4.312742898649768800e-03
-8.013115979896246951e-03
1.245915666575453037e-03
-1.945295469814453670e-02
-5.897719813273548384e-03
-2.447331227571134318e-03
1.150993020972656405e-02
-3.290288472947735382e-03
-1.118175309193470725e-02
-5.107151516472925069e-03
1.885444575741476855e-03
-1.719583680937728648e-02
-1.738943220896095945e-02
-5.600384198438231043e-03
-1.367824606829356852e-03
-1.380038052400747034e-02
6.462497369169207563e-03
-1.503792600609211473e-02
1.135132005245494818e-02
7.647593673705222958e-03
-7.046156291680923806e-03
-1.760086418878711867e-02
1.964882595049051092e-03
5.672722087215645130e-04
-7.730842357897007092e-03
3.175368673877384043e-03
-1.714684626108606974e-03
3.814471533157160615e-04
1.140400893266333565e-02
-6.505589949724415420e-04
1.378404987372632354e-02
1.759436965380392973e-02
1.009618994825837307e-02
1.001211826746943589e-02
4.367690606605362756e-03
1.345330486979241097e-02
-1.295200771529319075e-02
-2.683487515476242011e-03
7.427287885377685528e-03
-3.368375679857887710e-03
-3.026817086995616662e-03
1.046292928975086148e-02
-1.022459347984182483e-02
1.420447895829067206e-02
1.219043610009686376e-02
4.392195938921778647e-04
-1.041912026140173059e-02
1.732912315164018488e-02
1.375056321149354006e-02
-1.536235919558338707e-03
7.382681847936879878e-03
1.211453655643412834e-02
1.429299498186170289e-02
7.626357705305405500e-03
1.943101743027830092e-02
6.223888614122560434e-03
4.367547706522355647e-03
1.276092667150511206e-03
-4.551085628425727107e-03
-1.195972522272219923e-02
2.107547710494287949e-02
1.849073606535239084e-02
-1.116516557963231904e-02
-5.463751953561449617e-03
2.401955709012231627e-03
2.435620733868259363e-02
-2.086290118275946522e-03
9.088374572078028804e-04
-1.095374775535707182e-02
-3.570116261720953851e-03
-2.090428608445152672e-02
-7.198077670441381873e-03
-5.234709234820399820e-03
2.005780902480884184e-02
9.793934550586804247e-03
-9.414984708500204191e-03
-2.444201314095483316e-02
-3.813877549862348601e-03
-1.263476599955304369e-02
-2.615812062827990551e-03
1.966453782838098463e-02
6.273484433434462978e-03
-5.332230748761521838e-03
-6.617799213752924813e-03
-1.448332751924147344e-02
8.552991192126494641e-03
-5.760293528450665702e-03
-9.002711901571871025e-03
1.870618588003089902e-02
-1.824133908784842870e-03
-6.642353012347376739e-03
-1.213042322186612919e-02
4.414675341846656734e-03
-5.667096218867936734e-03
-6.427844164864060170e-03
-1.610891585869537665e-02
-1.277257647265185852e-03
1.084262150893634293e-03
-9.059693953213557305e-03
-6.410777822889575372e-03
2.659447236814531206e-03
2.729127378353520331e-02
1.738878559310928426e-03
1.738046781770948793e-03
-4.045869121300935123e-03
3.848580045118663029e-03
1.340322064606504302e-03
-2.763588270332724070e-02
4.055115019948102306e-02
3.948496378627008863e-02
-2.222054049129667044e-02
-1.458063592811350770e-02
-3.479521974008858293e-02
-3.247157890591755719e-02
-4.501508600186299863e-02
3.406386113307909719e-02
-1.743092551322613162e-02
2.339543027964088168e-02
2.417728662614135673e-02
-2.915084852710429081e-02
-3.886357104949002966e-02
-1.472666531690112329e-02
-2.089270558068635070e-02
2.357776804776345880e-02
1.782865700557261998e-02
4.133515416950209881e-02
-2.365433103818639915e-02
-2.254867272400499362e-02
-2.672017094300888768e-02
1.625038848736930219e-02
-2.741564295495453607e-02
3.387376432303169232e-02
-1.480999228940111344e-02
9.023807918191389249e-03
-2.584344648173736783e-02
-1.542278355447559285e-02
4.617817534775747745e-02
-8.963917333391802078e-03
2.456163033131494866e-02
-4.552776489464378101e-02
-1.831791985692099445e-02
3.641789033900143246e-02
3.084179548017499869e-02
-2.235456309020572574e-02
-1.935122180762759506e-02
2.954814348013010128e-02
-1.544711091115220924e-02
3.637919740188611667e-02
-2.544862519747036547e-02
-8.354833674148015935e-03
-3.216710481102171698e-02
3.363845276797294143e-02
-1.093854426407727190e-02
1.900130771641194219e-02
-1.902189328054838813e-02
3.302797704130255863e-02
-3.449625734482198586e-02
3.352199377362351240e-02
-2.357936690241295777e-02
-2.411201930746444122e-02
-2.762823957576141659e-02
-1.654274822630633773e-02
5.060904144085422857e-02
-1.635800751182762622e-02
-5.398261403138246428e-02
-2.164326758634332534e-02
3.820278699797652420e-03
-1.210329699066334946e-02
-3.019701501447010633e-02
-9.473094349630723290e-03
-2.582150069023056438e-02
-3.260530641894943127e-02
-2.372647614026629145e-02
-3.866561363777118454e-02
-3.539604546810602714e-02
2.777360559768302442e-02
-2.263332800289870328e-02
-2.439102275710854778e-02
3.255768099424907053e-02
-3.391664717725860478e-02
-1.074926236826150711e-02
-7.756526862668394751e-03
-3.479095874552946138e-02
-2.456547922931526240e-02
4.674849235175579376e-02
4.064627316808532703e-02
3.695092228906123044e-02
-4.477349395170711344e-02
2.322651620964703845e-02
-3.440114169900532204e-02
-2.961874080570998935e-02
-3.008874276292499220e-02
2.000463022357368975e-02
2.833135006736044875e-02
-2.431633325326026940e-02
-2.163529560722374234e-02
2.521637863491303991e-02
-3.179687096634987997e-02
1.924639407602507166e-02
5.272112141551907327e-02
4.878317125716195857e-02
-1.210586678797945931e-02
-2.108091594426407880e-02
-3.035105308702344337e-02
-3.096407389015870190e-02
-1.951531594061326619e-02
-2.705166016997437653e-02
-3.200479471717594671e-02
-4.385802301306174211e-02
-2.134460777904293935e-02
-2.393103357879435358e-02
8.776634547103520645e-03
4.394284935598660041e-02
-1.862902779482927471e-02
-2.347507045940988926e-02
-3.086873638080264021e-02
-1.790450049599672314e-02
-2.785673076766911546e-02
-2.998260522582775131e-02
3.607468000545908243e-02
-3.750759771367614959e-02
3.111033591246478713e-02
3.176175355938867795e-02
-3.337326703001341349e-02
4.986659810837631296e-02
-1.007604111122507688e-02
-2.403932786926677931e-02
-1.421581303707684756e-02
-6.767117372399629807e-03
1.438239768295903644e-02
-2.092278439750913308e-02
-3.400907795537375794e-02
2.665067550805952715e-02
-8.002373459682864815e-03
-1.432160424645445053e-02
1.935622976037384979e-02
-6.842026996868380562e-04
-1.475667138184994995e-02
1.017225480002443682e-03
-4.126628751001375911e-04
-7.760697315105395330e-03
1.252935283065544254e-03
5.665458083152799702e-03
-7.092728146596808877e-03
1.402619323978079174e-02
4.943656561409978667e-03
-1.137181058186156196e-02
-6.568038286917246039e-03
-6.677266207964979716e-03
1.438041264456865406e-02
9.532257253879091938e-03
-1.118224101075862911e-02
-3.423990235880911004e-02
-9.833730045437522396e-03
7.507797021161742579e-05
2.340490758557713796e-04
5.478211373770300492e-03
-2.659097731105087951e-03
-4.122238399847344761e-03
-6.551935728606693259e-03
1.206684068978297088e-02
1.716462870261431170e-02
1.412742218029430265e-02
-3.896168980336341819e-03
-1.424937508477314499e-02
2.236014889603743852e-02
-2.659783276028773388e-02
-9.130930021747406602e-03
1.056056838772883449e-02
-1.910591803330255467e-02
-9.215595676737554053e-04
-3.688138584772530405e-03
-1.131620924165175138e-02
-8.012122711945094886e-03
-4.839384933198835441e-03
-2.669119440712085060e-03
7.467120305906215991e-03
-8.819081035451582090e-03
9.152833680776392700e-03
-5.340957844773616854e-03
8.500574492870349025e-03
1.071355814344990970e-02
8.850657676322797734e-04
-1.864963941227066116e-02
3.363180363300967771e-03
7.102341683740899698e-03
7.024835130902429628e-03
9.926997199881017891e-03
7.132159321629766117e-03
-1.790958865432871680e-02
-4.108195803632676280e-03
1.966053260844101772e-02
-6.096701872277122437e-03
5.576053191828894001e-04
2.781855065344568476e-03
-1.415716141138797027e-02
-1.627126681661175862e-03
9.800597206391210847e-03
7.934718027545631033e-03
2.926852996273088953e-03
4.801256661496250411e-03
8.670196995138174795e-03
6.032049555966761609e-03
-5.728511490147233931e-03
1.150054020081632891e-02
2.141794752987979944e-02
-1.797236903925574815e-03
1.883664268012566825e-02
2.090296586229808355e-03
1.197579099055295221e-02
6.476252862534510879e-03
1.202221088591592241e-04
8.856296531242948550e-04
1.843709205939327023e-02
7.787875219032200022e-03
7.815972816274030163e-03
-2.157130594136674913e-03
1.579662588325844372e-02
-2.555071440766008666e-03
1.059011247845928483e-02
-1.025162811020209272e-02
-1.962639501742291775e-03
8.051034278497567337e-03
-1.200804412036837396e-02
-7.661275670258253789e-03
2.251442709398212422e-02
-1.148671858964203651e-02
-1.245043184900455988e-03
-1.920481554804565061e-02
1.279610454373738063e-02
3.989499323956416897e-03
1.087943623534802159e-02
-3.571660610731883408e-03
-9.064893215231011048e-03
-9.398770562368225640e-03
3.572880578085883482e-03
-6.587379130784325187e-03
1.566829187192418302e-02
1.856199534208698154e-02
-1.655623318748965928e-02
-5.823688562706108747e-03
-2.358886586129011788e-03
-3.966861850200533585e-05
-5.306444213689209995e-03
-1.288463570272562093e-02
-1.358476046521964187e-02
4.225165204480694006e-03
-1.680884530628406343e-03
3.791043568016915638e-03
-2.026658808569061290e-03
-6.859246915080528112e-03
-2.211961708610663685e-02
7.415129754064209849e-03
-1.979741570980160861e-03
5.000074725931494789e-03
5.568217606751421980e-03
1.802426000201122480e-02
7.257530202975769756e-04
1.620084067468456537e-03
1.199100637057190499e-02
4.061248458636601728e-03
1.047497120324965628e-02
7.082300112124226277e-03
9.545020245529663855e-03
-6.424517263200254374e-05
-2.433077330155192751e-03
1.400015226285537817e-02
-1.621640992168264794e-03
1.409076905635078293e-02
1.066550718403756412e-02
1.891052831052684319e-02
4.894930722499737583e-03
7.593750622356815194e-03
-7.720253233453673765e-03
-7.405023151901924360e-03
7.834516817181187004e-03
6.833981317999996384e-03
-1.505901662454554001e-02
-1.427040653126353427e-02
-1.506754392289685884e-03
-4.025393852513025825e-03
-1.828659553487133570e-03
-5.024591870798471652e-03
-1.641558054722900249e-03
-7.224421378243833791e-03
-4.042001218245855343e-03
-4.033174645849980748e-03
-1.443549879718912521e-02
-7.710446623879181963e-03
2.036265162979013742e-03
2.636573901289040057e-03
9.142283745512305715e-03
-2.028273384072101088e-02
1.794099967521023062e-02
1.071230445745383411e-02
6.893268748232547240e-03
-3.047506269399989035e-03
1.490513779531679739e-02
-1.620017725204314640e-02
3.491157160705608484e-03
-5.180860853439675506e-03
-8.824313114629183177e-03
-4.876913157624363296e-04
2.048981291497114360e-02
-6.330134862020287898e-03
4.918260801379994301e-05
-2.366964031683978925e-02
6.536786565999501766e-04
-5.867429116556376056e-03
-5.209534019961106592e-03
8.255239542687264204e-04
-2.687410618489548091e-03
1.594408705044257288e-02
7.506176388302047454e-03
-3.688589463017308452e-03
-7.421926759691836045e-03
3.080277910245039774e-02
1.437907710588407634e-02
-1.482224815595507145e-02
9.017588378055104575e-03
2.313261479949153387e-03
-1.792937228255437471e-02
2.086664501195901848e-03
-6.173213451308048536e-03
-5.215354825625319150e-03
8.848552381265891234e-03
8.931930461072854627e-03
1.160480940590522328e-02
8.916455692984687209e-03
3.033070214606368303e-02
5.393656069024035764e-03
-2.268742386718193907e-02
-4.031999792239633791e-03
8.541984106248706743e-03
1.499787492117956450e-03
-2.984595916221769937e-03
-4.777700306750252111e-03
-8.532309735918976873e-03
3.277152881393062024e-03
2.775557358674275721e-03
-1.163356760811736987e-02
-6.807512380819303113e-03
-2.165879309980129133e-04
8.602348316342899037e-03
-9.527040956721915740e-03
-1.207548193311285684e-02
8.109782573899937397e-03
6.513647439972711055e-04
5.185725663003280285e-03
1.423803777478607757e-02
2.356806966688621344e-02
2.253536609331265039e-02
-1.128354835176269277e-02
8.454695041883454956e-03
7.109310637233402959e-03
-6.095418109452614523e-03
-6.074241601587798862e-03
4.342383751798568718e-03
8.776654335982861377e-03
3.102757754956802626e-03
-7.809876691303955371e-05
-4.329639119733806780e-03
8.207308716589515121e-03
7.679601298200270341e-03
-3.964527841324671197e-03
-1.853452604755407435e-03
3.073651320380114092e-03
1.996082295723011768e-03
1.484911902998541089e-02
1.202354349733953699e-02
1.481768026177395989e-02
-1.264005043361699984e-03
6.697568547571622691e-03
-1.691854703625737116e-02
4.742479829466307237e-03
2.128031056708818217e-02
2.210779935123112147e-02
1.700343832520548326e-02
-9.252857753886862407e-03
-3.523974337978626019e-03
-3.974596624068476962e-03
1.142929753773762845e-02
1.164704288294867492e-03
3.218329960047107158e-03
3.819421386124042389e-04
-9.058805981981481008e-04
6.809426816759786040e-03
1.116561503264570585e-02
-6.989339203373273746e-03
3.901994758108691050e-03
5.566053487151218296e-03
-3.411469746983838286e-02
5.211510100984831362e-02
3.515390834500794343e-02
-3.079738899734812269e-02
9.452308867376913327e-04
-2.993542596572994208e-02
-3.656654276143725402e-02
-2.856131593402741822e-02
3.198708124433721073e-02
-2.237591300995726840e-02
2.784822012589692475e-02
4.358591708218730737e-02
-1.575393409834086045e-02
-2.706703713446384843e-02
-1.696219021664343088e-02
-2.990062208997173315e-02
4.855352780156766551e-02
2.612064854203542674e-02
3.912346219885223797e-02
-1.615503194316397773e-02
-2.434090798653463367e-02
-9.881903874847936323e-03
9.769088382947183069e-03
-2.677899758728398763e-02
2.776883482009691664e-02
-2.470365081224316223e-02
3.426083577587950985e-02
-2.110844903067616435e-02
-8.752355926408283276e-03
3.579600098961399635e-02
-1.263095729860283338e-02
2.713253301531356326e-02
-1.467079771943811430e-02
-3.102807213379267168e-02
1.295176839185533009e-02
1.654675420912494685e-02
-3.113502976596795035e-02
-2.053301394844934263e-02
3.190852739481787881e-02
-1.795908669622308870e-02
1.549395785324885616e-02
-4.522294617277831767e-03
-2.571627798082124633e-02
-4.535930235124925602e-02
1.284601988734741275e-02
-2.699819135531760991e-02
3.397198847094828195e-02
-4.679983992652431146e-02
2.800147917008715542e-02
-3.962854935326545064e-02
2.954723236638033546e-02
-2.301748486434598145e-02
-2.440583992669697819e-02
-1.527161212127146547e-02
-1.627767461800476087e-02
3.571179027033267311e-02
-1.757594750859902896e-02
-2.486635977191016880e-02
-2.064437764169505668e-02
-2.019177183416672947e-02
-2.920819568630360005e-02
-2.618433315128421146e-02
-3.319470765038080168e-02
-2.459711442571183709e-02
1.179200137477684485e-02
3.102515211039534072e-03
-3.791919377226993237e-02
-1.340816296199358673e-02
3.473808862861928887e-02
-7.060531786745477024e-03
-2.266789038256980873e-02
3.961410201001067805e-02
-1.983011135797085878e-02
-2.665129348285682001e-02
-1.841054214995768365e-02
-4.563952688520198780e-02
-2.533769558034247582e-02
4.054073651758174912e-02
3.267599191200266928e-02
4.246915100797472170e-02
-3.441064641111320210e-02
5.711016959908894741e-03
-3.107798752481980356e-02
-4.485489694260503396e-02
-4.507526181327180248e-02
2.894936628419432501e-02
2.779129091254262454e-02
-3.968324387314588197e-02
-2.440306118487714504e-02
4.218951684838433830e-02
-3.076645198383415325e-02
3.986515433344224590e-02
2.003703279970637380e-02
4.448661770668317639e-02
-2.229418762064020593e-02
-1.806658182357792977e-02
-2.803154753532760210e-02
-2.238589726884587447e-02
-3.771671974537707528e-02
-1.794543915134708470e-02
-4.336382174208802676e-02
-3.861186629239880125e-02
-1.909105698560288958e-02
-2.650468844911988212e-02
4.203988696813400205e-02
3.083291707289239833e-02
-2.629928479623949017e-02
-1.754553957043098952e-02
-1.667226666591017925e-02
-2.868906374529070838e-02
-3.242246752819122335e-02
-3.013196475609131869e-02
2.153444621788075386e-02
-2.633666707854348532e-02
-1.411125003323708983e-04
4.136659899721076283e-02
-1.386369303101913156e-02
4.193786514206947896e-02
-1.647747359068524320e-02
-2.027395947344158567e-02
-4.523462799153759456e-02
-2.793073342940780024e-02
-3.427320889478535637e-02
-8.098773769783408974e-03
-1.539908407544885848e-03
2.802004349969346338e-03
-1.571858986667151389e-02
-2.473222497192725799e-02
-1.362505264428302137e-03
3.102449258883855504e-03
-5.500308419992759081e-03
-1.102150759824347889e-02
3.947368902759863102e-04
9.037658743105421444e-03
3.619480879833270048e-03
6.847470332143388780e-03
-9.326223913818498107e-03
6.191084351198051020e-03
-1.816272161874214752e-02
3.199179992061061684e-03
-1.748772945005870258e-02
1.876526866400418311e-03
-1.424914910258301415e-02
9.858671843481150651e-03
-7.190194518880380081e-03
-9.343517521295688008e-03
-1.708028909865360115e-02
1.957205955361984023e-02
8.285577331996408362e-03
1.778884483726870733e-02
5.367052648629229948e-03
-1.009288759917513142e-02
7.881132965975996135e-03
8.596905730416109712e-03
-4.302872460019315295e-03
-1.162542175382920949e-02
3.321045814062379906e-04
1.853939503108879838e-02
-1.780929590382639149e-03
-1.196048461597811613e-02
1.292292505897602202e-02
-5.799247627771527899e-03
-3.003913605032997210e-03
1.699190436326878870e-03
1.690242536857293823e-02
-3.698604993014325583e-03
5.772890313812117924e-04
-4.905904389437525624e-03
-4.324788653065346142e-03
1.361724405371118884e-02
3.882721522486465987e-03
7.907420798225444150e-03
-9.526537952467060803e-04
-1.651102765019419986e-03
-5.880469669908622646e-03
3.116597696101509364e-04
-6.244205558604325190e-03
5.031855821650152438e-03
-2.200514066611882012e-03
-2.117571252711021330e-03
1.333029196627588328e-02
2.655708142434882145e-03
1.384503224348777525e-02
-4.512016082054590323e-03
-5.466603238034791097e-03
-4.290477284907597520e-03
2.610775572804777643e-03
-1.805807480683273986e-04
-3.108671121284432501e-03
3.536471450331001021e-03
-1.320657702477053344e-03
2.224068669018814531e-02
2.261564853304449951e-02
7.976099238705758668e-04
-6.422096092670723927e-03
1.647398646395749344e-02
7.991333598409082473e-03
-8.102513027004008828e-04
-6.922031818011287543e-03
1.626212177935042538e-02
1.209946383733300282e-02
8.872719916442176752e-03
-6.197183809891953186e-03
7.636894906093365243e-03
-1.897429184785975886e-02
-7.922794083730904519e-04
-1.798781619895665346e-02
-1.881584226067761247e-03
-1.337029195186675845e-03
-1.293470777056788049e-02
-6.315186120156736534e-03
6.278521752148167115e-03
-9.592418080430764604e-03
-7.017576231235110248e-04
-1.227960796293350171e-02
1.363416664849036349e-02
3.894505999764472527e-03
-4.591218470689430349e-03
-9.989100008380921714e-03
-1.242312718825054965e-02
-2.795878147253469739e-03
-2.203129269101613240e-03
-4.666781573233278607e-03
7.598166651386859330e-03
4.520887890321565947e-03
1.435810102572324456e-02
-4.549575719299407510e-03
3.414523591773473143e-03
-6.628149748133024127e-04
-2.007964905973427458e-03
1.716195863801116273e-02
4.206262527289918868e-03
8.373517096107060270e-03
1.374324196360108760e-02
-7.096471415365852853e-04
-7.159557587535749640e-03
1.543209293498521220e-02
1.980354171318123024e-02
-4.525030919078566055e-03
-8.464043925506200411e-03
-3.558547689397583303e-03
5.668892617746676757e-03
-6.164129992014296192e-03
-1.416812635322862828e-03
1.616461040844402453e-02
-2.195836999621184407e-02
-2.962369342650356813e-02
-2.302839275210136032e-03
1.620200930925959695e-02
-8.969832031038890707e-03
1.411750629341192165e-02
-4.928869258362249782e-03
-5.067428398262705490e-03
6.485541277678735089e-03
6.257448570841923734e-03
1.806621872983291827e-02
-2.404912856169639027e-02
2.811896823088813266e-02
2.092244508005571338e-02
-1.642323187632350329e-02
-1.275783472188096387e-02
-2.991830530956239576e-02
-6.992623089195237895e-03
-2.568712946927858079e-02
2.762384926462920984e-02
-2.201358101480590385e-02
1.304605949671871698e-02
1.888819665892340141e-02
-3.339845493612988298e-02
-3.539642525614756369e-02
-1.221920583150037064e-02
-2.340694310529918901e-02
2.885566084180282015e-02
4.494802161540394775e-02
4.910630346316103428e-03
-1.333820713724739350e-02
-3.003914823525183353e-02
-1.121460568311467019e-03
3.230603672578818975e-02
-1.262463479421528992e-02
3.089373421235835568e-02
-1.586251075473241873e-02
1.967200851804998957e-02
-2.978836674775157262e-02
-9.044489060314849643e-03
2.522764199757556586e-02
-3.853618704804351314e-02
2.994108921106560656e-02
-2.686518860307191003e-02
-2.048979088012395020e-02
1.813354472654986685e-02
3.612145811901258663e-04
-2.560987852654606281e-02
-2.658291995185344675e-02
3.369351029168337480e-02
-2.606680776527880994e-02
2.565565057851514064e-02
-2.527887548053681099e-02
-1.615922450165962337e-02
-3.724202298148945878e-02
2.778948379361820611e-02
-1.986659905811171550e-02
3.527566864505238958e-02
-2.421018312619550514e-02
2.411167073596644575e-02
-2.413424884793393538e-02
3.499555818226193771e-02
-2.309322231057906599e-02
-1.922576606309753591e-02
-2.993654683888917131e-02
-1.005393177289091652e-02
2.815975238440942760e-02
-4.176049110814387955e-02
-2.115056296813574294e-02
1.787226724453370823e-03
2.750904593377661439e-03
-2.053627511570439712e-02
-2.712089196851113701e-02
-2.391944268731342055e-02
-3.258794235936998684e-02
-3.800775244079387938e-02
-3.174947420377151330e-02
-1.983647960202694627e-02
4.696514995201839932e-03
3.008898725476642777e-02
-9.999518168025250606e-03
-5.299610913191311369e-03
2.165221875360149456e-02
-1.500676201280312129e-03
-4.555029769743139390e-03
5.081755484853177438e-04
-2.026777981641443571e-02
-6.098328378593522933e-03
3.980553789178591789e-02
4.651160579170068171e-02
2.563545494592152363e-02
-7.880323678564541204e-03
3.995417304054819235e-02
-8.487101439234758307e-03
-2.009655439702247304e-02
-2.035757395936177785e-02
9.235013128134459889e-03
3.141571149138908114e-02
-1.491450224397027763e-02
-2.013133641444168551e-02
2.242317569089545201e-02
-1.646483278006198592e-02
2.840553801277064666e-02
3.016956404640830369e-02
3.297563108360429540e-02
-3.260107541942884601e-02
-3.331791392668735641e-02
-1.408736608724703646e-02
-2.024711584378467016e-02
-1.390022191007317040e-02
-3.204638279626288722e-02
-4.051397893474008999e-02
-3.557442992736057491e-02
-2.352542043251524412e-02
-2.089189874577530512e-02
8.920002761924320303e-03
2.681236694600656889e-02
-1.581611867727217291e-02
-2.613384523213751684e-02
-1.441051478569101672e-02
-1.554656356662067335e-02
-2.570203636639745853e-02
-3.132765392833247037e-02
4.118667799156405102e-02
-3.034067736422006722e-02
1.235323704945467949e-02
1.514232735171352172e-02
-2.361262004705983603e-02
4.271733824498333970e-02
-2.031439392029919799e-02
-2.061401913228047209e-02
-1.546862747932401753e-03
-3.017143970164150313e-03
-4.781752853523664297e-03
-7.442656701344997454e-03
-3.175197248547475398e-02
1.410583308285179825e-02
-1.980087211124108293e-02
-1.891723789105720366e-02
7.504466206017005106e-03
1.184313193151499775e-03
-1.132373362286249151e-02
2.146671242451774625e-02
-1.423538599871103892e-02
-1.571916273288063298e-02
-3.423560507173390062e-03
3.252398765273179990e-03
-2.342735479290381992e-03
6.344256149356670635e-03
-6.348573123702473328e-03
1.015886011130806045e-03
1.644288795055174474e-02
-1.541527126212014582e-03
-4.974261602307676611e-03
1.230580296102640019e-02
-7.559133272399522208e-03
-5.736537791503769530e-03
-6.070527409476986214e-03
1.045188649467319875e-02
4.591567978245888332e-03
3.327127383496780808e-03
-4.860670825959393856e-03
7.334735014813370362e-04
2.562186220979836143e-03
7.795738556530935025e-03
1.166691930387434538e-02
-8.364469470150501240e-03
2.659368421077528202e-02
5.756676733462825699e-03
1.762465809047803963e-02
-2.007035913636698744e-03
3.490266042875381312e-03
-1.264590976623972476e-02
-5.165749270002757861e-03
5.936182747890058828e-03
6.241561892586097553e-03
2.135131605571561828e-03
-5.181646042280151424e-03
-1.564491690179920305e-02
9.973918033408949238e-03
-8.757250787472225725e-03
8.265210482243613363e-03
1.258634318670374778e-02
-1.195229148975627750e-02
4.462356440607922331e-03
6.711035498131753471e-03
-2.531480661937210355e-03
-2.805137027579475244e-03
1.351391283451361522e-03
6.304775451771845070e-03
-2.637496691698170120e-03
1.108979546963879265e-02
-3.946312033653486678e-03
3.915896591790845802e-03
-7.084727690136253565e-03
9.376798191080478254e-03
6.584675962197903722e-03
-8.753390805982054533e-04
3.107710355076693381e-03
1.928131927727005576e-02
3.902397201040297848e-03
2.784377417336616426e-03
-6.992181392155395921e-03
9.829914432488989426e-03
-1.094475084306239035e-02
-1.428089461565913015e-02
2.333106963615292750e-03
-5.674498075199005051e-03
-1.517594810547364184e-03
6.596527096123721429e-03
-1.482564380301308951e-02
9.002787139185062723e-03
5.516995237502596815e-03
6.834133389493203363e-03
-7.775071923110089822e-03
-3.314079564396546582e-03
6.448602975223879409e-03
-4.757414691365766460e-03
-1.498049052485666936e-02
-8.796684187530039167e-03
-7.139705406285290663e-03
5.120029665112109385e-03
-1.130191687621253868e-02
2.296905593827739712e-03
-1.861672204665711658e-03
-7.454748901736897582e-03
-7.776460694864873770e-03
-2.609482278641524558e-03
-4.848248830662703866e-03
-8.560886204120500206e-03
-3.757493128820320067e-03
-9.854899039922431978e-03
-8.766507334363123766e-03
8.785609950518911623e-03
-7.859499637445865015e-04
7.986275201934915982e-03
4.784509788484581604e-03
1.448000891912507243e-03
1.444553180614505626e-02
-9.883522160136064619e-03
1.601459077940210751e-02
5.782349111668601228e-04
-4.061033573687776455e-03
-3.165952393811473104e-03
-1.155380071481430272e-02
1.031325533673397091e-02
6.279708659440103383e-03
3.211514921192498966e-03
-1.966385554440979941e-02
-5.650346427803498457e-04
-6.915936439642635797e-03
2.498947945150815312e-03
1.525495920773218411e-02
-9.370658513937633795e-05
5.027904594345587209e-03
2.081512421571778885e-04
-5.785988740545407703e-03
9.603771486802352431e-03
-2.150578403835194663e-03
9.290740415559753732e-03
3.101584444126253681e-03
1.018260057891771063e-02
-4.874878991348834643e-03
-2.920157249014432820e-03
7.266328299140703377e-03
-6.731483644439766219e-03
1.460055881465798606e-03
8.408683596809265332e-03
5.988674760772864231e-05
-1.136702814980064882e-02
3.352197016589715615e-03
4.077940575212537708e-04
1.446662167651824316e-03
1.711017535022350475e-02
3.906514693563667255e-03
6.541806035648954978e-03
1.342056903760657956e-02
7.575428553982290099e-03
-3.673162043436112995e-03
4.345607050031318960e-03
2.728148846569780541e-03
-1.103363803032714544e-02
-7.898157971960743928e-03
3.911394536501414804e-03
-1.333915400960586015e-02
-2.963712539794760396e-03
-4.484310333287777617e-03
-1.174432164704501333e-02
-1.693283881364760629e-02
5.540480758733657037e-03
3.706890836650951222e-03
1.070484153974895353e-02
-6.782034859243818610e-03
-2.063574026763896965e-03
-3.774466115412464934e-04
1.346264994129588340e-02
-7.482564858299472869e-03
-4.893683421521352779e-03
-4.447672912805828924e-03
-1.888055583732852621e-02
3.761964389211174160e-05
-1.561921115122303586e-03
-7.017907470711800579e-03
1.277665171016284518e-02
1.882376464070471562e-03
7.247498602888388305e-03
-4.458076265938566360e-03
-9.201973090298331756e-03
-2.890772447847077958e-02
6.735727500010313049e-03
-1.387042590240560209e-03
2.483737743174252357e-03
-3.336033419430968656e-03
-1.746256342491556840e-02
7.259393720274830500e-03
6.922672456110435385e-04
8.773919679350412545e-03
-4.890223321966683315e-03
7.918445568147747249e-03
8.844520906558041989e-03
-4.536443293669856908e-03
-1.006169219056938548e-02
-2.858159790866208333e-03
3.780982829787604520e-03
1.059407017509522708e-02
-5.538570055187878177e-03
6.222651343106953489e-03
-1.992091346148286771e-03
5.009014438105621227e-03
-2.906116484415891335e-03
2.657826898882290068e-04
1.565688442804336576e-03
1.577456888884525704e-02
-1.042979644012962184e-02
5.573468044079375391e-03
6.426214570026964404e-03
8.304970501286288581e-03
3.595592004964725565e-03
2.772624959655876041e-03
-1.401826928633246802e-02
1.565081279843824960e-02
-1.378685455447686316e-02
3.624694566490673300e-04
-1.506734805597933005e-02
-1.252163521581238850e-02
-1.084369669637823969e-02
-1.002193933020375724e-02
1.681076217182131405e-02
8.623096683828270284e-03
1.940350189537127720e-03
1.493602823893588026e-02
7.290786464440337372e-03
1.636870012172984140e-02
5.347122832829716808e-03
2.137178245679754660e-02
-7.842040584820866855e-03
-1.686232180871334585e-03
-5.063605221048688571e-03
-1.440225323858050112e-02
2.328389581291691150e-03
2.063925713391002829e-03
1.065383856200078326e-02
-9.057358521394578282e-03
1.209440522491390946e-02
1.021793419824628887e-02
-1.111011438457032950e-02
6.767085524178810541e-03
4.082404638376842254e-03
-1.011053090091715637e-02
-1.445637858312028880e-02
-1.222900146133720604e-02
-3.578629966670897680e-03
1.008794759888789402e-02
1.390209428142982068e-02
1.107130646207828487e-02
-1.982850120547080541e-02
-8.999014740221260647e-03
-7.820569572419736049e-03
7.239030520363675357e-04
1.087954466320998834e-02
-2.738381506067673679e-03
-8.393675127583100082e-03
5.552366331124542267e-03
-1.313775241113480929e-02
9.448098875422148227e-03
4.989030548870737256e-03
-3.215112697611920926e-03
-1.106946770019338541e-02
9.611357558876713197e-03
3.869308329302293889e-03
4.742101873160791368e-03
2.709366150663134257e-02
-1.449891717655696181e-02
-8.905051815604459603e-03
-1.882421815766430109e-03
-1.008400868756438064e-02
3.775543531549389875e-02
2.593139216847686196e-02
-1.174264067398175793e-02
-3.277854218181212170e-02
-2.383741523387288008e-02
-2.498011600002835245e-02
-2.472988003498224896e-02
3.245813001053946684e-02
-1.792863778483233181e-02
2.571147153553400913e-02
4.548038170476671055e-02
-2.692003478060145741e-02
-3.502629772647185974e-02
-1.539011531839245758e-02
-2.187492980610013585e-02
4.208377141105820035e-02
2.554260343495485391e-02
1.847112593003401651e-02
-2.477153586745722141e-02
-4.213078926655267759e-02
-4.240489262479422289e-02
4.812007241838454213e-02
-6.450549097099530539e-03
1.606179235070819000e-02
-3.309853612923143590e-02
1.445067603669059238e-02
-9.221225719477716548e-03
-1.018803520689084453e-02
3.278468736777302717e-02
-2.813052440484449523e-02
2.497825374793016806e-02
-2.841871901450464602e-02
-1.821455213597004269e-02
2.223062103052189306e-02
2.625774080855295539e-02
-2.915668081777035570e-02
-1.200797453484192361e-02
1.342611190717355255e-02
-3.006125937065888196e-02
4.135544401056106406e-02
-3.436120720649697008e-02
-2.442113288636780025e-02
-4.617246126133019157e-02
1.438030471879147773e-02
-1.227166363033612394e-02
1.755847364909201777e-02
-5.728381370587388305e-03
2.194685165686404218e-02
-2.178283560534153770e-02
3.140262113667188770e-02
-2.026510690543800383e-02
-1.893960990611933889e-02
-2.327334038515511613e-02
-1.512422409892520692e-02
2.885663097190990789e-02
-3.159740297095137845e-02
-4.118303386367912211e-02
-2.903191856807963225e-02
-3.933819283217517004e-02
-2.907378520965875346e-02
-2.305152909903894140e-02
-5.325595070109709513e-03
-1.969158131722714700e-02
-3.178803129678429290e-02
-2.188062743674659000e-02
-2.344205807974083719e-02
-3.823167399441725761e-02
2.237112406508922138e-02
-2.277966657264361358e-02
-8.162195245739788454e-03
2.048291907317829896e-02
-1.526147076927527636e-02
-3.690109493550605690e-02
-4.656603000567396955e-02
-2.212843917233551713e-02
-1.970145834454184453e-02
3.547589287701895938e-02
3.636357347824600156e-02
2.587050608586003927e-02
-3.552108903683175861e-02
3.263309733990380455e-03
-3.208446502800619410e-02
-1.777868051389501144e-02
-2.567657471809152783e-02
4.485220052524192813e-02
2.102659497381751535e-02
-3.463421754926360174e-02
-3.099342781054220675e-02
3.802223693528172105e-02
-3.391807914314418082e-02
4.465306463826877043e-02
8.165954283647892942e-03
3.481877299312337304e-02
-2.909769202704626245e-02
-2.324782363966410720e-02
-4.344341934493632651e-02
-2.240977738796836802e-02
-2.925566642047153568e-02
-3.415204998134711845e-02
-1.116392323724837987e-02
-1.514041297121032463e-02
-3.702566924153735672e-02
-1.714903588437746360e-02
5.104517666862196101e-02
3.477995044793330548e-02
-2.615732458498550711e-02
-1.535979728735291198e-02
-1.797373851184535729e-02
-1.531131160033758799e-02
-1.947751860116146358e-02
-9.386924265395989522e-03
1.663054664011029415e-02
-3.041540048990673886e-02
5.129506150798821690e-02
4.645906906473482034e-02
-1.386121505610431702e-02
2.124346175235383716e-02
-5.075069540619790015e-03
-2.608201341168671708e-02
-2.230860073395295878e-02
-3.551298220613301540e-03
-2.072419348202192424e-02
-3.745713615785133122e-02
-2.332781936360787955e-02
3.128111729576236316e-02
-1.687363600321892124e-03
-3.120664210609905981e-02
-1.974457933448703351e-02
3.582718901998739602e-02
4.253311487178983163e-02
-1.357800276043052284e-02
-2.469080427133676925e-02
-6.194290044864268416e-03
-2.611708451106244458e-02
-4.582442457363275490e-02
2.575455482336030943e-02
-3.942784081649634148e-02
3.406759160613910542e-02
1.943492100626634592e-02
-4.715285972948677490e-02
-1.981190368709113969e-02
-1.317654049053553628e-02
-2.549196926129060348e-02
1.375363402401053731e-02
2.128107511141950556e-02
3.297907187876723822e-02
2.212973206630373480e-04
-3.117060150450915584e-02
-2.397726357191023658e-02
2.455357995981739469e-02
-3.634623626074916930e-02
2.073018153761048768e-02
-1.782412120309355072e-02
2.637069210753973866e-03
-1.878574644136656382e-02
4.933363017907012316e-03
1.782424268705366105e-02
-4.076366924077020476e-02
2.368516671504602294e-02
-1.996492822999871436e-02
-2.562425770317428020e-02
8.317423490327793129e-03
3.259490745986781679e-02
-3.307676358628326707e-02
-1.219854086767712883e-02
1.882040424240937967e-02
-9.195973824638405819e-03
9.768060078027438961e-03
-1.206901210670738647e-02
-4.082869505814367556e-02
-2.547093118519939622e-02
8.119859581184638714e-03
-4.167617420888001384e-02
3.770344603181456644e-02
-1.742208548967020751e-02
5.419909087070463871e-02
-4.059961131842404480e-02
2.694034042310096064e-02
-4.184045669396315587e-02
-2.038290121012835063e-02
-2.270415467849494842e-02
-2.682713583086934403e-02
4.292717610973653675e-02
-2.481595342995110073e-02
-2.595199852394520015e-02
-3.187385245346305296e-02
-1.792478460420890082e-02
-3.475354992717754471e-02
-3.512233332605069897e-02
-2.201702800011266434e-02
-1.430813499651518127e-02
-2.349723430293446449e-02
-2.801996054424324770e-02
-1.770952990981465580e-02
-3.679348780666132079e-02
2.196598661721069906e-02
-3.031520818209967535e-02
-1.672535008535831411e-02
2.831307121211365171e-02
-1.772478775859195541e-02
-1.855960198147297777e-02
-8.096752241069650816e-03
-2.411706503413753311e-02
-3.075919510180294414e-02
1.175204334161561448e-02
3.919064260640695019e-02
3.048336255629933988e-02
-1.997042469981044274e-02
8.467930478349823542e-03
-1.531341733804292976e-02
-3.144255564342920278e-02
-2.240280360778076907e-02
2.175488448255800955e-02
3.630654914274022288e-02
-3.474898201569027317e-02
-1.210541968257568268e-02
3.641881106719292022e-02
-2.526744849107407168e-02
3.676923462263899378e-02
1.767275224018150653e-02
1.265033550259931500e-02
-8.710481228853149058e-03
-2.502236699190821603e-02
-3.744684171128902228e-02
-2.073455188453790510e-02
-1.232065998935904551e-02
-2.410615672378173951e-02
-1.980671824212912671e-02
-4.847828693207209549e-02
-2.896667005858113639e-02
-1.736627942794831403e-02
5.101198511645900491e-02
4.060794675446869478e-02
-1.238301271508556595e-02
-2.897533146371961479e-02
-3.197324166153867053e-02
-1.996787446508971331e-02
-3.034173164322380434e-02
-2.265238551180570256e-02
2.792247095853710517e-02
-1.130097213496839351e-02
3.115224658391471321e-02
2.629802015635998580e-02
-3.262314092273526506e-02
2.935907644576460362e-02
-1.525002164734482260e-03
-7.387913046594322443e-03
-2.487731556774085487e-02
-2.598159159071822613e-02
-1.155412999137855889e-02
-1.843602224552425006e-02
-1.458151922184581194e-02
4.114216699003778177e-02
-1.005302096202078353e-02
-5.452671467136425976e-03
-1.555352004834222729e-02
3.704538577614368416e-02
4.292754387122889315e-02
-2.483157078483309854e-02
-1.337966392900759652e-02
-2.052847101630062010e-02
-3.136017241456151572e-02
-8.110675321888435527e-03
3.227918887048573243e-02
-3.522741903018541954e-02
8.054193789033808198e-03
4.388156280343710747e-02
-1.259539633583521036e-02
-2.655947358979923387e-02
-1.152317093253964544e-02
-7.794020881664238606e-03
2.936955948518642223e-02
4.380126745866567972e-02
4.053054096643258358e-02
-8.547144795373738668e-03
-1.188080744037389030e-02
-1.013972147530132345e-02
3.543832742720206402e-02
-2.818839387731183685e-02
3.121714615340693763e-02
-4.950695206576828308e-03
3.221006557994035568e-02
-2.540233023921665764e-02
1.182294832581407755e-04
2.475042408779626335e-02
-1.910581252927272961e-02
3.407689409972147060e-02
-1.558843839991192956e-02
-1.281939566366889147e-02
3.672797567580116107e-02
2.287559173223417675e-02
-2.771577201280037150e-02
-4.641672696490250355e-02
4.262735831581576651e-02
-1.174736377872964005e-02
2.438529821005562190e-02
-4.902103013714492752e-02
-7.807938644587912071e-03
-3.592910533317661415e-02
7.871414098033272660e-03
-1.971027015488275441e-02
3.368279492654286528e-02
-2.386068609230427781e-02
3.573412000905300950e-02
-2.795311504906229649e-02
2.393842758773811683e-02
-3.313068132650649755e-02
-2.742678085379234715e-02
-3.560488494156132527e-02
-1.841607628303765232e-02
2.787263245346794510e-02
-2.744954005932699614e-02
-2.461902837217454579e-02
-4.171715856800482097e-02
-1.601932515108819496e-02
-2.734119138697986215e-02
-1.269533390298727311e-02
-3.162974373073425272e-02
-1.872049254532514792e-02
-1.929134762391061103e-02
-4.202434980185078967e-02
-2.368681032911989712e-02
-1.093640844510800937e-02
1.276947158403038407e-02
-3.736399860995313904e-02
-1.365384363875221663e-02
1.714323345987130501e-02
-2.665657976240521504e-02
-1.280232418531209067e-02
-4.226931486562610085e-02
-2.761395426708573159e-02
-2.804413546314071110e-02
2.153548370824256639e-02
2.876534320388425547e-02
3.253595164022102942e-02
-1.497186497386712202e-02
2.179368385856969570e-02
-3.112342269596715325e-02
-5.780927833129212261e-03
-3.644020753750920605e-02
3.154409861299529300e-02
3.359881624323224347e-02
-1.908798618850175016e-02
-1.064150149539232725e-02
1.990005378919893625e-02
-1.044725540490786669e-02
2.350870510204473504e-02
2.503663371097068768e-02
2.099844112498999368e-02
-2.575048447639086135e-02
-3.994552980931555253e-02
-2.704711993373592679e-02
-4.038123818800150311e-02
-9.769932526764179420e-03
-7.753424472502042780e-03
-2.137329704336909247e-02
-3.610851633117348469e-02
-2.376650863479224524e-02
-1.614511401057028284e-02
2.629499997108317513e-02
1.863169998602388217e-02
-2.839365482227364235e-02
-9.039872943813266268e-03
-2.579922882199238432e-02
-9.918373203002844862e-03
-2.933104936870807936e-02
-2.988579789744892634e-02
2.900157745187028832e-02
-2.455335501757011790e-02
2.016977625852458406e-02
2.159389237152995258e-02
-6.866650371645123714e-03
3.588362390951652103e-02
3.905692925284650003e-04
-1.494387652893743382e-02
-3.010519872418631476e-02
-1.476637769443081734e-02
-2.430457277630279633e-02
-1.961543523912792283e-02
-1.831913486410793879e-02
3.432033107112100051e-02
2.510658249069092855e-03
-1.446459945200452395e-02
1.468457523488249372e-02
-3.620200989173077283e-04
-8.762415589477438177e-03
4.366062494649929938e-03
-7.186287952135561770e-03
5.743016799618822638e-03
-1.058021660778996065e-02
1.631978583217181394e-02
-8.055050884070246928e-03
2.209222855698386376e-02
-1.952581324426399048e-02
-1.816539848217148256e-02
1.467117219043407444e-02
1.118964501835122138e-02
-3.411692613017779790e-03
1.294009464015586849e-02
-1.237815928436521162e-02
-6.506312740216639925e-03
-1.872111361327806825e-02
-3.481616644784465281e-03
-1.323487626657316590e-02
-4.636193308877619920e-03
-1.461949265803291070e-02
-1.507230399723254177e-02
-9.041636102461714924e-03
-7.970953598705737136e-04
-6.379009973725442012e-03
1.132175634292146606e-02
4.500860179010293324e-03
-6.968932868037123682e-03
-8.474659771936041835e-03
-1.188460244948832956e-02
-1.127020583378336369e-03
-2.393701216908618486e-03
-2.246477178842489972e-02
-9.238797785400199719e-03
2.189893201834615041e-04
1.217409074901074431e-02
-1.047994209168461727e-02
-4.364384880876357765e-03
1.038028853920005580e-02
-1.174507854880429449e-02
-1.219774373001310946e-02
3.240202718283778996e-03
-2.460766216215045949e-03
-1.123037843999179913e-02
5.888801046648328361e-03
1.153587964436818963e-02
9.770689294394768049e-03
-7.509185516808751862e-04
-2.066678718661757886e-03
6.637432160229977257e-03
6.406539212502991056e-03
8.344851051395672792e-03
6.270524738362375124e-04
-5.541780132810677877e-03
1.517631189971161906e-02
-6.550388423247295588e-03
-3.643360306891888639e-03
1.062267337687896468e-02
1.203574291357373260e-02
5.963532661646429173e-03
-7.241096482989930853e-03
4.870365824561768454e-03
6.801182900944237851e-03
-1.175265051883568959e-02
3.786078484153861980e-03
1.491071589166101732e-02
2.758155007771833506e-03
3.820533042743242194e-03
1.187004881613396706e-02
1.645909470312846047e-03
-5.226176522184442300e-03
2.056678751409441331e-03
6.991961647535679253e-03
4.043131211005001821e-04
7.166929927642657835e-03
-7.764140000944294226e-03
-1.120501633660875990e-02
-7.424496766865061083e-03
8.832433705191416323e-03
-9.939031886973962240e-04
5.228921023238131127e-03
-1.319587413316281391e-02
1.168464686015847215e-02
5.395443630393495851e-03
2.994136202465703597e-03
1.288026843770447710e-02
-2.738236634446790906e-03
-1.321672323931096654e-02
1.668505391508427489e-03
3.861838362849894478e-03
-1.595811242469297175e-02
3.255069657652504694e-03
2.258589269182816311e-03
3.748042485476412583e-03
-2.418574427111032897e-03
-9.651219733978283477e-03
1.706106463285933256e-03
4.251421735410431356e-03
1.475193930110185909e-02
-2.261252275808312874e-03
1.527566333611735452e-02
1.461075869002365774e-03
5.769380390518094592e-03
-1.063579291573197791e-02
1.743728248200485456e-02
1.077520398256593195e-02
2.573634055179073454e-02
-4.686998273572428979e-03
-1.119761935387886612e-02
-8.631825510089233960e-03
-2.030127351097012200e-02
1.861769270991769573e-02
-7.378847622737010406e-03
4.772989407312699245e-05
1.173737571075762938e-02
1.815564065277514710e-03
-1.010513688338416510e-02
-1.107906042222424337e-02
3.996617709550807918e-03
-9.076901765280807541e-03
1.711478165213595193e-02
-7.292004535012289179e-04
7.481301473174538710e-03
-4.968532813706713451e-03
1.805148466749301184e-02
4.128358473893995600e-03
-9.782030823081039675e-03
-9.599245888802239446e-03
-1.914202440143565262e-02
2.865986690808812465e-02
2.080556732178918261e-02
2.437813750914382370e-03
1.208192847252290147e-02
8.091541270052918233e-03
-1.172327404384119684e-02
2.236255935460687572e-03
6.466230276769230692e-03
2.637573004027483903e-03
4.613085733663947578e-03
-3.121788821855673267e-03
1.530223226398500988e-02
3.408076078713209722e-02
-2.247150330885083064e-03
-1.971805883906588980e-02
1.054380806328315476e-02
7.508946708765657993e-03
-6.197775924093741617e-03
-5.116544926992847714e-03
-1.883697953582953027e-02
1.792166277591173557e-02
-9.912510843432812552e-03
-2.312126845645839229e-03
1.231911539878125308e-03
-8.728942803147007184e-03
-1.221975276773574169e-02
-2.871042721073831586e-03
2.837762307735788858e-03
-3.657591283438481854e-03
-3.102276780601197562e-03
1.151649769193799702e-02
9.400666211178607817e-03
4.237350522992407165e-03
2.222931724017106897e-02
1.148880484258977056e-02
-5.680329892898266196e-03
1.412598104566626864e-02
6.654918722604756531e-03
-2.379698578817287906e-03
6.834368933521866966e-03
1.437439838341101825e-02
5.743838104915422946e-04
9.743812387184252674e-03
-1.697649781513757908e-02
3.199866416475597580e-02
-2.265902462881217057e-03
-1.128267427943786122e-02
-7.453865152306461336e-04
-1.583510431749699660e-02
7.528389431259312897e-03
1.341534470762466638e-02
8.986792547781136814e-03
1.232582840594392479e-02
-1.505202619046770544e-02
1.306371118537831728e-02
2.722646269861304924e-02
2.221993248793916603e-02
-4.076900482992949944e-03
8.717988493604581987e-03
2.745390818977955574e-02
8.010525065616679735e-03
-1.028767519016963311e-02
2.497261674612324955e-02
5.608563874833185497e-03
-4.566176220560894117e-03
1.931280740772124346e-02
2.625295516358990867e-03
-3.434666200615170591e-03
1.383378194920377099e-02
2.225379628933135331e-02
-8.529131889367559324e-03
-6.422970759548621983e-03
-1.683665249348243603e-02
1.491699322763951133e-02
-2.091323468384534250e-03
-1.237775292684504744e-02
-1.405633971578043248e-02
1.617245712890538756e-02
2.461248164593278324e-03
-3.836898275620407618e-03
5.502483699528264161e-03
1.997218503769938175e-02
-8.101365032304500349e-03
-1.133729965869328428e-02
2.756474930685797603e-02
1.642740326478056914e-02
-1.988948969664968043e-03
8.897624319559500200e-03
1.775713910635776799e-03
2.457091295779592448e-03
-1.123944045052905141e-02
1.962429604562525992e-02
1.086888494197202695e-02
3.966139154453087075e-03
2.040603221025836730e-03
1.120732337203338667e-02
9.224251761580200965e-03
1.921093124595167623e-02
-9.875927410238649964e-03
4.261131087196134461e-03
1.130173356277299271e-02
-2.438856556832767059e-03
4.069628283202584261e-03
6.804681907299861901e-03
7.066846564351384960e-03
1.516613207826595852e-02
2.651919204240433051e-02
1.925558618726279370e-03
-1.845628537984134523e-02
1.337730322993782063e-02
1.223372631792854319e-02
-2.015111655478449282e-03
-1.876504236841382983e-02
3.380755755212752622e-02
3.554745956122442284e-03
-1.322222170229875836e-02
-4.084618990013519010e-03
5.529125452846956300e-03
4.493247201996173820e-03
-2.915643914428646399e-03
2.827133050887601501e-02
4.434687558112857669e-03
-9.007266418711894901e-03
1.537740775427537746e-02
1.385994771220544486e-02
-3.191840523528718943e-02
1.955928164654599163e-02
1.861810619702344155e-02
-2.070010860397913932e-02
-2.542016760869066777e-02
-2.357844019538294852e-02
-2.796314995378063745e-02
-3.459587886497966086e-02
1.023646983429993274e-02
8.529903438228216006e-03
2.272234096321577509e-02
3.474477492750369795e-02
-2.271989831583845834e-02
-1.432592369065253946e-02
-1.255962767883984921e-02
-6.869856120659880230e-03
1.737243916986263431e-02
2.274906499431719048e-02
2.031099379672682281e-02
-2.922721816183757038e-02
-2.432516147143155144e-02
-1.576596352411271246e-02
3.420015057354802018e-02
-1.107902467723879177e-03
3.471725453232579056e-02
-2.500460713616777311e-02
1.244638692542305788e-02
-1.411467820510147950e-02
-1.924614069083090129e-02
4.156336915082699951e-02
-3.427846879881205067e-02
2.002182671415499507e-02
-1.894363414978619212e-03
-3.856166190245107622e-02
2.133761197497848622e-02
1.122285495878319779e-02
-1.463980988048160098e-02
-1.912050478308872925e-02
2.282819254956642771e-02
-1.321635150371471695e-02
3.314887613184536175e-02
-1.846003456287993033e-02
-3.718360570069946525e-02
-3.158208345534975221e-03
3.987125115981415835e-02
-1.917324631554891134e-02
2.967698100360915275e-02
-2.801455472446041234e-02
1.096179893266107340e-02
-1.192892162961334442e-02
2.015959250447878215e-02
-2.463343776551227965e-02
-1.053750960923720628e-02
5.612561298069725438e-03
-2.877206872374926672e-02
2.182853176939682574e-02
-2.177025154492345533e-03
-3.271416629428165052e-02
-2.022033394064021855e-02
2.318715676211851977e-03
-1.398165887158845169e-02
-2.556113777421407246e-02
-2.082289537438603011e-02
-3.716988039245895659e-02
-1.275594981585254084e-02
-1.045534738694211575e-02
-2.089614405921979071e-02
-1.849013306597503681e-02
1.538666478563199477e-02
-3.050164866387565510e-02
-2.677548695417948307e-02
3.186609024769781334e-02
-4.307669708117271498e-03
-1.262667273950263645e-02
-1.596272670348294204e-02
-1.336878093654514030e-02
-1.776551900740181225e-02
2.736147596958391284e-02
3.146860861996910591e-02
2.543794328151723419e-02
-2.217828614464439213e-02
3.772278856508309852e-02
-2.496673733164548464e-02
-5.538534402004148191e-03
-3.664878053514851290e-04
2.738344056690944495e-02
4.472959891120417697e-02
5.846127922711550837e-03
-3.635868983915355873e-02
4.407520912767373678e-02
-1.275874795349296077e-02
-3.035379803082179691e-03
3.366938914562071783e-02
1.194644764938854534e-02
-2.099943668159718474e-02
-1.905171495634816817e-02
-2.760349890161432201e-02
-3.486345228745355018e-02
-2.183963321622637080e-02
-3.261754503099480867e-02
-2.099061181698625225e-02
-1.468085984774223675e-02
-1.404133321711086707e-02
-2.809057109068047869e-02
3.192376406753007212e-02
4.304217296367502527e-02
-2.559063600523166920e-02
-4.785990297977465134e-03
-4.028828594633603738e-02
-2.174463084496910947e-02
-3.112222970563682800e-02
-3.604957211023295666e-02
4.690579615947005482e-02
-5.810280305433729656e-03
-3.708738293124663049e-03
2.719619359190011965e-02
-1.736661468035487904e-02
2.256486178602058745e-02
-3.439044045298655233e-02
-2.519212089649200750e-02
-3.112044840566886936e-03
-1.435408778071048386e-02
-2.790279166799953386e-02
-7.107477488755680958e-03
-3.830953771529440818e-03
3.262644479694901817e-02
-3.220236149575880780e-02
-2.848718206954587578e-02
-1.243612546121817576e-02
-1.514034958532707066e-02
7.929709519372916265e-03
1.561940127501235207e-03
9.602262277145428432e-03
1.493851057190457784e-02
8.871228236519205362e-03
-5.229239180595459703e-03
-2.309028889011079458e-02
2.143941809267943532e-02
-8.701840899820484799e-04
-1.627865982660034461e-02
4.242015937667975405e-03
-5.357622090331021561e-03
-9.108101091616062350e-03
-3.240541361801907005e-03
-7.179149391227545272e-03
9.465652007848612132e-03
-6.726953639748343636e-03
1.389441921457688911e-02
-9.788588431970852294e-03
-1.400235780267477213e-02
3.564225484473818560e-03
-1.963904467869283590e-02
-1.677197275207198413e-02
-4.955455786153488765e-03
1.376278789678368406e-02
-3.281819576009143650e-03
-8.152006813052755166e-03
-8.203578673109762588e-04
-5.936091641241999714e-03
8.199760324541095768e-03
2.128986718672135417e-02
-1.188959842718395610e-02
-7.799201230512193064e-04
3.097745174928221920e-03
-7.428189002398851923e-03
-7.275641968134859616e-04
-1.076688230199440710e-02
1.407044428640696551e-02
-5.821542138110896524e-05
2.097490337858205073e-02
-1.636876621412967307e-03
2.821827057509187359e-03
1.278003233191636265e-02
-1.800804368197563357e-02
6.622168218036655028e-03
1.193910773992245059e-02
-7.547264743118686954e-03
7.728527623616675453e-03
5.876683674331625862e-03
4.646398397348034835e-04
-2.127832583820326359e-03
4.613654205569609965e-03
5.992629153278001587e-03
8.894911715882197409e-03
4.935486200598458197e-03
-3.390099881088287116e-03
-9.009013480819571401e-03
1.037322591721196070e-02
1.253555773649817073e-02
3.395392569426617518e-03
-9.840275034707888363e-03
1.086171703465742266e-02
-8.908963835444152005e-03
-1.358712583994542812e-03
-6.407974193502794825e-03
8.057984955984741696e-03
-3.068643179004415696e-03
7.611013598421363484e-03
3.564160167143449066e-03
-3.252474816696818128e-04
-2.636927799669772088e-03
1.916539670210450422e-02
-1.367339418294197858e-04
-2.536550575316571556e-04
-6.280132682101242578e-03
1.790411158607095946e-02
-3.776707433012623828e-03
3.976875152974230013e-03
3.870130481189029757e-04
5.169859030762011601e-03
-2.192751457728775184e-03
2.988338464210829170e-03
-3.162435863921974222e-03
-9.670167962173270224e-03
1.041244386468228103e-02
1.693651190667599341e-03
9.500080470751156312e-04
-1.177631132716021713e-03
-5.774775830104705680e-03
9.573217579950905193e-03
-3.379467401814581756e-03
5.036602813753645463e-03
1.872932932847121146e-02
3.649516643084383272e-03
-1.356992408069796104e-02
5.164719383659604861e-03
8.798156830485097044e-03
3.171801013719193884e-03
-8.646205574294782426e-03
-1.597993739176806552e-02
-3.718592982573479776e-03
-5.906867135429798993e-03
-1.226934587820691092e-02
-1.615645774690280256e-02
-1.027161020258232291e-02
2.753827888617998987e-03
1.537765011561150613e-02
-1.010984042063598105e-02
-3.875632565534067875e-03
4.040132875646454749e-03
1.491810611611630102e-02
4.080784824349796384e-03
-6.923799502397401037e-03
2.690906318193406373e-03
8.669727835135622451e-03
-3.479450274625386919e-03
-7.721743622257048719e-04
1.198566170494030046e-02
-2.400690663422920795e-03
7.443966555450082408e-03
7.426940071626596945e-03
-8.261571890386515057e-03
-4.131474497515183128e-03
-2.051347964970150466e-03
4.733567219232324291e-04
-8.776322464734542111e-03
2.356206429713608025e-02
-3.853538939393596000e-03
-1.454095973876142617e-02
-3.750065030486883326e-03
1.259933379338957701e-02
3.024630443790323441e-03
4.075716859578915920e-03
1.529319354147610707e-02
-6.299325862936781643e-03
2.982759921338136617e-03
6.509159997763904089e-03
3.150892354689857969e-03
2.218231183227465514e-02
7.100649443667748917e-03
-1.681347921593687872e-02
7.315161060822026814e-04
-8.145002711606234153e-03
5.989001540529816092e-03
-8.266981856978321275e-03
-7.419583209015842389e-03
-7.278380314521847028e-03
-5.150555813993387688e-05
7.999971587203311835e-03
5.415852973804368385e-03
-7.577724555170448767e-03
8.011330950706350984e-03
-1.087044694519919731e-02
1.136387250080324925e-03
1.057583478118648800e-03
2.882116822818681784e-04
3.191808587352436624e-03
3.600300978592749224e-03
-1.707734326535995106e-02
-6.501829394294353012e-03
2.000428136755972273e-03
-9.637093217139005782e-03
-3.302895841870837935e-03
1.592305622524756853e-02
-1.273294109558575742e-02
-4.560925854000882559e-03
-4.469591399616243063e-03
2.588584442771250937e-02
7.562808615911954108e-03
1.371481617747959819e-02
-1.207022857162593291e-02
1.675022523707414557e-02
-6.785666895037230188e-03
-6.989190183760814017e-03
-8.836294377101578876e-03
-4.824130818882992056e-04
2.346898300876583236e-03
-1.483514248924974743e-02
1.524429059358985497e-02
1.036483158700166225e-03
-3.815670012332002779e-03
8.252729508873660538e-03
6.230445948928898386e-03
1.675140309905049155e-02
5.781021997902753388e-03
2.814926582648583087e-02
1.977082390457867572e-02
1.053262237461084425e-02
-8.050881424853797291e-03
3.887406544637925405e-03
-2.821476907505378849e-03
7.361465690137194116e-04
1.368558795327084500e-02
1.269110206352100714e-02
-1.691375018072983905e-02
-2.615703036711746962e-03
-7.141794946351647140e-03
2.512313764961575380e-03
1.742303024750725682e-02
3.073187545538546422e-03
5.665622464131285854e-03
1.527027653044253641e-02
-6.437084379414358473e-03
3.622320196227801423e-03
-9.056348801940467680e-03
-4.482687603957290386e-03
6.322304600553153159e-03
1.238253285162767628e-02
-4.444164507855632995e-03
1.949302553777000624e-02
1.877212201512570844e-02
-1.455324058474948695e-02
4.805289491813915029e-03
3.555160473693533274e-02
1.529241739522149354e-02
-8.351643712399190594e-03
4.017939923267340070e-03
3.392728110782327992e-03
9.956420725604634217e-03
-4.403467913541726959e-03
7.387413613206261602e-03
4.458444843412195761e-03
6.980047284316543039e-03
-3.177060275250831456e-03
-1.646480557346507133e-03
-1.473346216892150624e-02
-5.693960024886865652e-03
6.526994262024610714e-03
1.786425985255548146e-02
-6.921290067837268002e-03
-9.797506415926672541e-03
-2.259741304102332038e-02
-6.540676712650370615e-03
2.500956180789584184e-03
3.894701626646502029e-03
4.364957699850198665e-03
2.537502540752560425e-03
-5.460241515624234508e-03
-2.383717301636443728e-02
-2.018694799582480479e-02
3.213759565743844193e-04
-7.830906195650116225e-03
-1.769068095317555440e-03
-6.799143583546191083e-03
-3.078760687223705723e-03
1.706203092246023553e-02
7.511238784353490086e-03
2.850541261462852943e-03
5.209763692292430914e-03
1.116519946838947890e-02
7.503404390960765474e-03
6.544987501657406961e-03
-4.469546114031567631e-03
1.188228330060093346e-02
-4.117391913258517180e-03
1.949940121638530158e-02
1.638624919620127601e-02
-2.008490713062962337e-03
-1.875661402616832577e-02
-1.015390524213498520e-02
-5.589055848986557162e-04
-1.973920707777416031e-02
2.459917931425474255e-02
1.387454529661581032e-02
3.121132868817945785e-02
1.664132099079675478e-02
-1.542198337113802505e-02
1.677718684764274064e-03
2.075900073231425058e-02
-3.961523634948727057e-03
1.219911898941305681e-02
1.856272905711349105e-02
1.930420265399344915e-02
-8.444233557483636285e-03
-2.550817139368392536e-02
-2.549872735134249557e-02
4.295731548957139323e-02
-6.313193104543144037e-03
1.310884782769683628e-02
-7.601633618509496225e-03
4.804193194791275996e-03
-3.361137639301929256e-03
6.320191276837457649e-03
1.688118041999823321e-02
-8.541060930894663495e-04
1.129345359202795288e-02
-2.955013489567699311e-02
-3.781557036267669397e-02
2.955797707470279173e-02
1.626594021108371951e-02
-2.036381211763928223e-02
3.844339541292859930e-03
3.747945092861429406e-02
-1.566919032348965124e-02
4.239158858443514005e-03
1.644526034551817284e-02
-4.363639063762643489e-02
-2.263783785263117233e-03
5.522245310236486085e-03
-2.613497549603395823e-02
2.733479414873988059e-02
-1.567696643765206094e-02
3.029815971089665216e-02
-1.163955599901801002e-02
1.712934437444330049e-02
-1.739187261299287093e-02
-2.549657643671701321e-02
-7.078079850894493895e-03
-2.808550270654036618e-02
1.882897052032806925e-02
-2.626852327449884922e-02
-1.247696827563720204e-02
-2.013932086751839268e-02
-1.979580101362765979e-02
-1.398269060460805360e-02
-3.978674505958963020e-02
-5.840135005490550493e-03
-3.408762457440401433e-02
-3.107320116608653857e-02
-2.771211986229341756e-02
-7.391583644287789100e-03
2.411322502702280008e-03
1.107232034741833376e-02
-2.781869284252400445e-04
-2.195987400705158230e-02
1.078738030830894701e-02
-1.123857838553455300e-02
-3.520898143759598753e-02
-3.497661645555968923e-02
-4.357149190019347917e-02
2.599351669383419966e-03
1.441794574964257690e-02
5.219369095262279407e-02
4.759343639744644666e-02
-2.425567784892953410e-02
4.269881318213136941e-03
8.443346481290116279e-03
-2.683173390032192462e-02
1.249013552498396719e-02
1.502048237625796048e-02
3.473484222051824444e-02
-1.209865638729933079e-02
-1.866320037745879470e-02
6.817397675423862886e-03
-1.076191850823406647e-02
1.072261733096176693e-02
3.804728492653443317e-02
2.430759906256196867e-02
1.564455218353665716e-02
-2.927644828838894819e-02
-2.264157555373329071e-03
-9.239274391616709992e-03
-1.553575255573318506e-02
-3.935448568181758311e-02
-1.846531609405672666e-02
-2.749859444371704695e-02
-1.986834002677315136e-02
6.321355016730811904e-03
1.020231334641779827e-02
3.911807173240323260e-02
-1.919524432602396496e-02
-2.701046164846549608e-02
-2.799337378512183408e-02
-2.313034453114264435e-02
-1.879182952588415514e-02
-2.288349617179750647e-02
3.126176605488865251e-02
-6.481700855604400659e-03
5.561665539568855232e-02
3.535757469980866513e-02
-1.390707932499501802e-02
1.029231985439198888e-02
6.007739412760213817e-03
-1.498816097884921907e-02
-1.183541309891771379e-02
1.253724407071328192e-02
-5.436324891991651739e-03
-2.248534897225298868e-02
-2.574154559190484914e-02
8.059662259220966296e-03
-1.546992337549991069e-02
-1.657852425552851922e-02
1.725935719355666670e-02
3.628554106246715399e-03
-1.031542126532675185e-02
-3.412833455857213621e-03
5.632163577560391800e-03
1.999863688901868004e-03
3.833133510966976049e-03
1.712547689701099385e-02
-7.352213457967632371e-03
1.079415369708447078e-02
8.821959114125123291e-03
-1.175126155111803558e-02
4.481683228052435637e-03
-1.942077216326994898e-03
6.349707769975159594e-03
-1.811723219658555560e-03
-1.044731176742501669e-02
-1.211493400055879861e-02
-1.254866365813263503e-02
-4.266436497175138051e-03
3.863159579623324721e-03
-5.602939154447188035e-03
4.157177866907243655e-03
-2.456177574011213921e-03
2.275555216930714997e-04
8.388465184132829974e-03
-1.283718071726713469e-02
5.897266207071474517e-03
2.217340968720173111e-02
-3.308929547959363338e-02
7.730497878812160432e-03
-6.164740008183122733e-03
1.362514469957465911e-02
-3.038137933703680994e-03
1.274066217951362601e-04
-8.233848659381625898e-03
3.319092438672099910e-02
8.659421376018057448e-03
-1.842666789240776301e-02
-2.530475243304830188e-03
-3.899946428568284648e-03
2.977364866551166899e-03
8.034837488155279622e-03
-3.843629788336326222e-03
1.552819635478387694e-02
-2.585679052345262255e-03
-1.308199352001111065e-02
2.194705355022447818e-02
-6.049567067406850553e-03
1.518189268565031148e-02
3.362755675385195944e-03
6.118170770211512656e-03
-3.277623309333259870e-03
1.442267850248100079e-02
-1.545004295157250199e-03
-2.686042846605615070e-02
6.529080207344651471e-04
3.076173108789656205e-02
9.470149398846210154e-04
-1.289117350323747482e-02
2.050670552787837303e-02
1.875396444077084487e-02
1.012926278834854268e-02
8.654855718893697536e-03
3.717300806995569099e-03
1.296597548141746777e-02
-3.646322227234871996e-03
-1.173286430949014268e-03
-2.319398163680048627e-02
-1.426899495075985638e-02
-3.011644360672434580e-03
-7.427678616140759998e-03
9.472883351328731383e-03
-1.380020056629597917e-02
-6.604983539755603095e-03
2.127954799908092498e-02
6.964499016267004100e-03
-9.199291068207044245e-03
1.693334728644584758e-02
5.409249118852087548e-04
-1.852335638354817363e-02
-4.488696223311788684e-03
2.561557668091921786e-02
-2.055480862085404953e-03
1.163969386870204910e-02
2.978015440234530777e-03
8.604559847945990672e-03
2.318866867741655163e-03
4.697131942282854397e-04
3.658141065112458998e-03
-2.793768495733574275e-04
-1.129819778788076351e-02
4.417989162490331724e-03
1.388799161827276862e-02
-7.603398005589256416e-03
1.721038195845012164e-02
2.212984446996034676e-03
-1.121198269194680422e-02
-5.324546579839837916e-03
-7.490333405275983840e-03
2.687681841022764029e-02
8.054640283565006609e-03
2.381037746855135112e-02
-3.553218240351608756e-03
-1.240277371974266192e-03
-1.150299106820481393e-02
8.761818626094798612e-03
1.197751543057873694e-02
9.412413238479648905e-03
-1.353758585478782167e-02
7.962044545431994427e-03
1.374194373413126051e-02
-7.649740286024840456e-03
1.250581499725646889e-03
-1.064298583234026159e-03
-1.224949174507661796e-02
-7.217431436260537958e-03
-1.468375279928090492e-02
-5.559394210573171367e-03
-9.202873634850037426e-03
3.372291424875022668e-03
1.623084409810616330e-02
-1.745916697273504695e-03
-1.037360150840363482e-02
1.102472099154502144e-02
-5.844258520161300929e-03
-4.834965031017934844e-03
1.266743676612166677e-02
-6.031975337543542780e-03
1.614268113118712831e-03
5.541103206757467398e-03
-5.214991602760204147e-03
-1.968244763129042233e-03
4.270260512271337877e-03
2.072443848199308561e-02
-4.647093140404077831e-03
-1.596516297097028136e-02
2.501538935842487904e-03
-1.050813454791268454e-02
-4.645859708559993244e-03
1.181381534036529679e-02
9.166230664960603111e-03
3.074825008721645582e-03
7.562983591859016343e-03
-6.933334129353907992e-03
4.961083924236183058e-03
-1.650498056187088862e-03
-5.564072586167227372e-03
1.719437308685839135e-03
-9.952574083967268524e-04
1.293753905895755202e-02
1.036328358034400120e-02
1.553355220521359693e-02
8.251600368841368466e-03
4.148934806254638528e-04
-3.278495557493353758e-03
-4.585464604027723542e-05
1.218512986140770499e-02
1.722834161851495224e-02
2.199310550516822994e-03
7.680199523563987704e-03
1.109503155069590727e-02
-1.976304954312038675e-02
-1.297270584467023757e-02
-5.516958868553405171e-03
7.847124477352747634e-04
-1.841977513929332752e-03
2.088313531809589743e-02
5.929125688020265260e-03
1.362962095148705218e-03
-8.735813766559108115e-03
-3.453108177161511028e-03
2.321377143065287817e-03
-6.480202313016015896e-04
1.576169883072243462e-03
8.149751001648606816e-03
6.660214667835287310e-03
8.375540428511556862e-04
5.362567925343103732e-03
1.430820521094582076e-02
1.767515985445505117e-02
-6.442484979024403272e-03
1.442300843630093220e-02
2.769034096578591123e-03
7.989079390660330099e-03
5.777007226608847808e-03
-1.094109067951352888e-03
1.259791814939606631e-02
3.100878030402359938e-03
-7.731999504737593551e-03
8.495439273375300290e-03
-1.675916253056808705e-02
4.972127070039733358e-03
-1.656164936382749017e-03
-2.279200742044349901e-03
-6.458293881446975347e-05
5.350577017944450203e-03
5.457791129267763192e-03
5.072210185490397955e-03
1.061131229827638918e-02
-8.387211876306902361e-03
-2.026608040530550325e-03
7.919955275368050635e-03
3.550270013111958469e-03
7.866862699391932029e-03
-1.031295789291525843e-02
2.238533121557097216e-02
-2.487851044500180900e-04
-8.982307126582609116e-03
-2.045402300897937193e-03
5.671492649939837392e-03
-4.921019243147204195e-03
4.292109799872535943e-03
-1.635332564755583690e-04
4.999964834339168905e-03
9.660972127452347596e-03
6.144007051714708845e-03
-8.130316542470697114e-03
1.331000202009737649e-02
-2.038854274824202992e-02
-3.523522234298133438e-02
1.257243379089730212e-03
-3.580252113652145768e-03
1.686876703871537445e-02
8.447684526424935336e-03
1.625807819260581630e-03
-5.116297781487067452e-03
-1.069244243064532661e-02
7.803702900484962672e-03
6.872517115957100554e-03
-1.953640680349294674e-03
1.453924196454983199e-02
-3.672815379604829622e-03
8.773778349886936570e-03
6.791237391205332333e-04
-4.178425176738905997e-03
-1.119239526804752596e-02
5.936725832595812075e-03
6.664662473157987634e-03
1.453465983947457504e-02
-1.450963360784885033e-02
3.613153803903477665e-03
2.903574010141277053e-03
-8.104400592196678299e-03
-7.188583377365950246e-03
1.348466614654953398e-02
7.592294071332164433e-03
8.584647936679210695e-03
-1.460871962316744738e-02
6.053020316640633953e-03
6.239731852180836411e-03
5.068147776247422520e-03
9.068314257436762074e-03
-7.118909866488862086e-03
-2.613386107679208526e-03
-2.998816137265379253e-03
5.619438066044260376e-03
8.494616598165189228e-03
-1.447960822143740112e-02
-3.540504869236140405e-03
3.998723625465197030e-03
5.188227876609082315e-04
1.442607372505984656e-02
9.062194305512846770e-03
3.152245959963639529e-03
1.264616851194306189e-02
9.745178518069313317e-03
4.164313783170021238e-03
4.871914781138454026e-03
4.608119540795960895e-03
-1.962867611298474771e-02
-2.765899682012514654e-03
-1.748992274976121641e-02
-4.462384511635677196e-04
3.882073054100963067e-04
-3.599412324534030584e-04
-3.187814406502123381e-03
-5.291685506978401933e-04
6.798488273671086761e-03
1.624220185672471672e-02
-1.315039347874019313e-02
6.562363275708100324e-03
-1.478706797032131905e-03
-3.096849058898536265e-03
7.809300560503045809e-03
-5.246635258784951295e-03
5.292362836932316961e-03
3.001475207616071880e-04
2.793722241413763331e-03
1.174731446627681492e-03
-1.265343131373000696e-02
-2.762828953598367963e-03
-1.149168081926443818e-05
6.465324709201993297e-04
-5.278587558817741596e-03
1.928739040672484625e-02
-8.508930204570159042e-03
-5.849281399015540672e-03
6.412412342589583585e-03
8.576560645633186236e-03
5.086872455362066725e-04
-7.589689504129387698e-03
-1.241622633412286028e-02
-1.064829021323368888e-02
1.379844997323494832e-02
8.091687611356526352e-03
-1.783168848454162042e-02
-5.323274164944065585e-03
-1.486631019496340023e-02
5.832899500738205137e-03
1.729307269328651808e-02
4.527675384064307369e-03
1.958715675401458134e-02
8.655941686783762135e-03
-1.629975397367830134e-02
1.927899521973291605e-02
1.828275319136613702e-02
-7.139146319623781295e-03
7.016831589599938600e-03
4.054833854222071425e-03
7.783964598121106450e-03
-3.214783104559040816e-04
1.424717027575673166e-02
-2.714531309362662286e-03
-1.045733209625763528e-02
6.706139867694622600e-03
6.247335338305340900e-03
-1.032470181269699687e-02
5.873678862244312640e-03
5.099201982108310729e-04
-9.139367545617770386e-03
9.630528982599584342e-03
8.643210702842104090e-03
-8.310831401466361318e-03
3.028050210392153364e-03
-9.614972358657889254e-03
3.962739479315312112e-03
3.905968152947326792e-03
-1.038435709879900401e-03
1.399339687980713336e-02
-1.589436593765211972e-04
-1.441670688803211448e-02
3.861109204931163774e-03
2.079214686234577558e-02
1.810680880704254592e-04
-9.471971886831583032e-03
3.699241082279730586e-03
-2.131203513115471557e-02
1.752532629449461525e-03
1.031107572465436890e-03
-1.396531711602965690e-03
9.328488087782645100e-03
1.155697862088691553e-02
-8.464988166986552737e-03
3.151702281883291164e-03
8.217093525869936105e-03
-2.029522576340783008e-04
-1.833547145374995937e-03
2.700012303302171037e-03
-1.698428059215670652e-03
-6.547186796424634553e-03
-1.202021603168339225e-02
-1.953375794773923139e-03
1.350358128129475199e-04
-2.180640441011757677e-03
2.279555289397380835e-02
2.178907977632114912e-04
1.128391832570213235e-02
-1.211733575175039969e-02
-1.225353956086578690e-02
5.213585467318829214e-03
-6.961284181322550599e-03
1.079812747127420827e-02
-9.562204444306100087e-03
6.520951281836082775e-03
2.018277091607796614e-02
3.804133359804205868e-03
1.875861462815279351e-02
7.218046485783599642e-03
-2.538827084152079413e-03
9.862990374874754801e-03
-4.688164870160777941e-04
-2.398642029671629872e-02
6.038042243913525203e-03
-3.178286555615918163e-02
4.521783103987363911e-02
2.926274794219914724e-02
-1.984861308656030859e-02
-1.622036520815454616e-02
-3.079898883174073815e-02
-1.864547263136192776e-02
-2.652590455100942157e-02
5.294754722434704547e-02
-3.420636862224801789e-02
4.939248611829152869e-02
3.225032702914024108e-02
-2.265345629710867684e-02
-4.941225110128039978e-03
-2.471117178536659520e-02
-5.172897444055576943e-02
3.635779348794251908e-02
1.976952176318984983e-02
3.109057589860825949e-02
-8.404933041587975967e-03
-1.551214903717530215e-02
-2.573297859614689584e-02
1.635334041770641900e-02
-2.717710275242794446e-02
3.619520285597611908e-02
-2.336654959878860932e-02
1.646565143136484444e-02
-1.754361987769332762e-02
-2.078892962970776623e-02
2.649511546424200212e-02
-2.510535467950668689e-02
1.790108769715059028e-02
-7.027164335547605133e-03
-2.699401447755751804e-02
3.860015714635307849e-02
3.159581996257009723e-02
-8.827066944422491766e-04
-1.268356242088241985e-02
3.196537969368448001e-02
-2.757625352920143810e-02
2.787916481796646334e-02
-1.509919595103503820e-02
-1.263810681704899234e-02
-3.636030044667518807e-02
8.753723086651824317e-03
-2.495246527347214430e-02
1.683057015918409602e-02
-4.416827891645107307e-02
3.646808867343755145e-02
-1.036049532840463416e-02
2.621248716997141848e-02
-2.652098922076131376e-02
-3.008032111900823397e-02
-3.827439240931358039e-02
-3.173716326712928970e-02
4.131574872330669168e-02
-1.378730970675747652e-02
-1.034159357900190160e-02
-2.765530646590364308e-02
-1.931034839676786657e-02
-3.076491293197626889e-02
-1.339424830697866220e-02
-2.634942269808601689e-02
-3.881943296615104899e-02
-2.475763408303187710e-02
-2.523375142413625954e-02
-3.935908531422401685e-02
-1.521688084409876345e-02
3.429633195457137962e-02
-2.380922324217360497e-02
-3.296971534357262534e-02
4.449861844027714480e-02
-1.487545342813182542e-02
-2.325992796497251477e-02
-3.280958432016052324e-03
-3.090097121958467960e-02
-3.067520033997432963e-02
2.806161253907355629e-02
2.926133042561827186e-02
3.277663523885128438e-02
-2.204717907281650985e-02
1.798106070277082774e-02
-3.610123912365148513e-02
-2.894591114859082839e-02
-2.600020185596246119e-02
1.992773624484460437e-02
1.703283172895258060e-02
-4.284683335107968005e-02
-2.070798166975180987e-02
5.277956916697826989e-02
-1.785006973144611514e-02
4.321222918796858992e-02
1.859873351323311323e-03
5.350804803870744947e-02
-1.691324028061579055e-02
-2.175261877854229794e-02
-2.864455655450778848e-02
-3.153245391944665965e-02
5.539252483931084159e-03
-4.051950309052483601e-02
-3.473255349805632469e-02
-1.190441009305688580e-02
-1.789524983890530829e-02
-1.172369408220605771e-02
3.200633268247179281e-02
3.077658193022601504e-02
-2.765706014801850438e-03
-2.707447701641283247e-02
-1.886418559061809469e-02
-3.090602635865893899e-02
-2.867884670339834047e-02
-3.867671053074698412e-02
4.935582768745503529e-02
-1.720814994963990388e-02
2.611084198868915754e-03
3.904227052575874601e-02
-5.540834140778022610e-03
1.471849940204417694e-02
-1.459165746477067774e-02
-2.983002089851570504e-02
-2.585640038281137795e-02
-3.408490511133475259e-02
-4.332227683714934968e-02
-2.852087814592712059e-02
-4.162133071419556185e-02
4.756741287231162907e-02
-3.245006297021089947e-02
-3.185573179934900884e-02
1.741091502696687178e-03
-3.679860731411888162e-03
4.177204066812000710e-03
-2.831940833251438486e-02
5.532448986925258237e-04
7.850890691808621799e-03
-5.209823403001978721e-03
-5.447255000737284171e-03
-4.267044846557492728e-03
-3.850011688170942512e-03
-1.050481389905766338e-03
5.333089005669841391e-03
1.286051704195591457e-02
-1.364139211449058239e-02
-2.590064774925743361e-03
-4.823533264441304431e-03
6.122556727951258652e-03
-1.217043004828058383e-02
-3.851346266653904536e-03
3.389452359972433201e-03
6.438886343569123240e-03
5.416569940933630908e-03
-1.375929856148749852e-02
1.833065078463006620e-02
1.395580310099062528e-03
2.710045232267144222e-03
-3.525020552327722424e-03
1.665838068353230192e-03
1.428429988433332085e-03
7.133913392853906063e-03
7.350312831834863482e-03
-2.055846294270079894e-02
-9.557658963655240800e-03
-2.731937404890911417e-03
-3.150597195861674742e-03
-7.494968105408402782e-03
-6.074723224474053683e-03
9.432124244892351253e-03
8.294759732563083618e-03
-1.793582650973643642e-03
2.745239703271901231e-03
-7.640614428135866602e-03
7.784155944818791847e-03
1.331937432756733451e-02
-1.972401469810176888e-02
-8.568153570271370284e-03
6.838736100952813590e-03
2.036185366747200135e-03
-7.802880090271129866e-03
2.979452351225464566e-03
-5.678405437392084441e-03
5.343214326032827248e-03
4.509567640224219041e-03
1.552887704140080462e-02
-1.047328825697794660e-02
1.165271216188381925e-03
-6.088860319008026351e-03
-8.216197397970079370e-04
1.043830680867886525e-03
-8.910419997070899087e-03
1.126758457561024759e-02
2.606575058148402624e-03
3.987843830017893422e-03
-5.377324220053337697e-03
-1.293963639835328701e-02
1.322032988132876849e-03
-1.518796637590751411e-02
-4.052243753280163584e-03
2.627099600540749001e-03
3.577893167977935340e-03
8.800478762004916231e-03
-4.980727425124892652e-03
-9.063004536211057699e-03
7.512128704086799141e-03
1.004462063657557067e-02
1.490372023473530289e-02
-8.329637572130321396e-03
-9.157039127880097634e-03
-1.132289183634316472e-02
-1.415556379610209692e-02
-8.294013222659830931e-03
9.020537388191118486e-03
5.056827497436376662e-03
-1.634624133217918462e-04
-4.144820505147829397e-03
2.238199700580869537e-03
-1.144400773067925578e-02
-4.574447650485042281e-03
3.139153259722584580e-03
-6.028532702550380359e-03
-1.449233869492237356e-02
6.463721861879645307e-03
1.624942586301801259e-03
-1.590368737397853879e-02
2.268334494509191297e-03
-7.573563047790924166e-03
-1.744162223163029518e-02
1.793390439686892539e-03
-8.256094531072845702e-03
9.267599607872278183e-03
1.869983325593860962e-02
8.648658017595088621e-03
-7.691261322254346056e-03
-4.759219702606581719e-03
-1.128040956120006204e-02
-7.048745584923077345e-03
-1.346031387925894886e-03
1.297843609246060112e-02
-1.237686161197975449e-02
3.129983034386437518e-03
1.401808940353054260e-04
2.729872865236477025e-03
7.537288184841651160e-03
6.538761390045304787e-03
1.795007671171939363e-03
8.536374412957448837e-03
-8.064383508976928801e-04
-6.382766082426913172e-03
3.302806201322757221e-03
4.297368091551210384e-03
7.296631572700281333e-04
1.305166423070835491e-03
1.823887537524444477e-02
4.319418199903393533e-03
6.636718200371640071e-03
9.353543209512751519e-03
4.355360903506444101e-03
5.091910159416584807e-03
1.339351385981312620e-02
-9.059891300724400715e-04
6.083885249467008496e-03
3.432296440293347399e-03
1.309531345357230550e-02
-9.625308005338402417e-03
1.620243879764583783e-02
-3.491051144810606438e-05
1.453314928516197778e-03
-1.610336473882651581e-02
-3.873222626190892491e-03
-1.773858855505978591e-02
-1.075886049951598269e-02
-2.004711384912514702e-02
5.422545702583951924e-03
-6.292927477564262684e-04
-1.405011623070533816e-03
-4.388687220709864938e-03
1.394324860567895327e-04
-1.517230037953530911e-02
-2.133721082947903202e-03
-1.372806978528547453e-02
8.997560492838946669e-03
-5.721473293439623652e-03
-2.513339340698968020e-03
-1.725982319922379077e-02
-6.257347030537235844e-03
-1.286899853001750860e-02
-3.928521496347313000e-03
-3.969393177130117745e-03
3.754772710961741273e-03
2.179053386305524267e-04
5.537600284609549631e-03
2.209821520485616073e-02
1.236752494996671420e-02
-1.385292078659455112e-02
-8.008119805331127480e-03
8.913868111510452052e-03
1.978581083427918309e-03
-1.744364574716972954e-02
1.065133546681854698e-02
6.634724557820726072e-03
-3.480117657673395364e-03
1.781948516589094630e-03
2.164340033093291316e-02
2.923580450809394431e-03
-2.958001394420809414e-03
-3.026524406873648543e-02
8.478668143188379525e-03
-1.844080773049266639e-03
-1.931598359727699360e-02
1.607285939108030540e-02
-4.830444712583992391e-03
7.392107688731149560e-03
1.334338243049088858e-02
-1.454209571132656330e-02
4.510743441800717755e-03
5.620512628909000649e-03
6.180542680634648275e-03
-1.106051672656710970e-02
8.258895680960946090e-03
-1.490188938250857492e-02
-1.322815046919791244e-02
-9.518992558734527820e-03
1.528222130552820725e-02
-2.323633404385321531e-03
-1.085909131053008035e-02
-7.938985253216221394e-03
1.415572074820483327e-02
-1.738785322425292351e-02
-1.289592755822547773e-03
-7.978121883272005360e-03
5.417398959807175063e-03
2.154194569986168407e-03
-1.446752065473014097e-02
2.225473629959907884e-02
1.428903117729806924e-02
-1.114415051974901316e-02
-7.312044190929184104e-04
-2.639051067219908356e-03
1.153853719850157084e-02
-3.618212859173205662e-03
-6.926367837621891232e-03
8.665521066717724041e-03
1.490035333770574691e-02
-2.809375125971957585e-02
-1.043549039341488786e-03
1.742112500476787271e-02
7.896612177818604361e-03
-3.785271288283612034e-04
-1.573729071499606856e-03
-9.746883877557038778e-04
-2.199603760005881641e-03
-1.058507726064449386e-02
8.223059826202909484e-03
-9.198080167338903990e-03
-1.216516347173870680e-02
-1.790286555420168846e-02
2.951063692138450149e-03
7.628573784782778297e-04
1.012960005327281053e-02
-5.802848117324437699e-04
4.642162462704051314e-03
1.246516413824453468e-02
-4.692835713699322966e-03
4.024675022057021267e-03
-3.478746353638599749e-03
-1.310107640649849775e-02
-1.121673736882816685e-02
1.585214653064175375e-03
-9.838088421790021354e-03
-9.368769570253742546e-03
1.126591538340939933e-02
3.143689218960756503e-03
-6.262896487641229047e-03
-1.993615481996285910e-02
1.345380775390624811e-02
-4.293127789316251997e-04
-6.981175448201937424e-03
2.703610505483462767e-03
-5.929011656334110848e-03
5.550728466079555591e-03
-6.446410135491537768e-03
7.302843048398563637e-03
1.492072267562882804e-02
-1.470915871903378039e-02
-1.056079774768608863e-02
1.592229529538907729e-02
2.411279111328477366e-03
-1.632791272408888605e-02
-7.410901245990631631e-03
-3.987145163232137107e-03
2.609877843992356936e-02
-2.692376855024753053e-03
2.671819749139568712e-03
-1.538267929717367435e-02
-2.451526971658199092e-03
-1.033990692597348653e-03
-1.570800541324703092e-02
-1.185296935064904765e-02
-1.675063968894328209e-02
9.401255960397238154e-03
2.295895590395346381e-03
-1.396836193345359946e-03
-2.359006775676365016e-03
3.670424510483213248e-03
8.687508020312942336e-03
9.627648025861872474e-03
2.189988403103855334e-03
1.525330498901963233e-02
-1.103145052373414800e-02
-8.957584967055672726e-03
1.053912918014539291e-02
1.482968945165386368e-02
1.665179276826211918e-02
1.227002476144858911e-02
1.245586546671953281e-02
1.305628478278015106e-02
1.638615355910454791e-02
1.228057568244604256e-02
1.564304131444223950e-02
-5.928439940572398370e-03
-7.466416955443712887e-03
6.496602531771763535e-03
1.115985833869779023e-02
-1.690316485830031107e-02
-1.414846350124950025e-02
-1.254178817195091000e-05
-3.433104967722519496e-02
1.948590422647529519e-02
3.193594653668909919e-03
-8.656337006041965598e-03
-7.707876219372513868e-03
8.040227108994917743e-03
6.631554968388956271e-03
3.621097052617198563e-03
-7.519217732612545196e-03
1.190155160773961884e-03
1.582325508628495275e-02
-8.393367571571212771e-05
5.955524678096956424e-03
5.369117438481551055e-03
1.273363085145092638e-02
-6.289189503563299283e-03
-8.317130912811741827e-03
5.146980136192214408e-03
2.042628259189564234e-03
1.519210167877688318e-03
8.696639093191155245e-03
1.791237800867261434e-02
2.020015674852113086e-02
-2.774802644033022916e-04
-4.370977571856594912e-03
-1.311784965793990482e-02
1.873221331224184799e-02
-9.658181313865508294e-03
-1.628665310775243014e-02
-1.125673311732760216e-02
1.199733783547141108e-02
6.995156987809387876e-03
-5.267248595341131844e-03
9.310151860062402390e-04
6.689322398336510628e-03
4.772837556851444556e-03
-2.315639693704621069e-03
8.488801433391207282e-04
-1.958577287727241226e-02
-3.364441984901600513e-05
-2.938237083253187991e-03
9.887686499354078618e-03
-4.082820186195406341e-03
-1.294365665737722687e-02
3.012051023925163464e-03
1.020639407295979156e-02
-5.260789910706453049e-03
1.402927510750478883e-02
2.178988545514118705e-02
-5.093876400314994481e-03
-1.234495640880414052e-02
-1.366743549880186127e-02
-7.639552155618055743e-03
-2.588123036551608427e-03
-1.146073049856749168e-02
1.883693141396693051e-03
-1.094857663562641761e-02
1.841285896449988344e-02
6.374356634173542098e-03
-3.906758827903838126e-03
-9.011041692558230398e-03
-2.048779329585620652e-03
1.545579953189220659e-02
7.737433043922391923e-04
-1.751848606438246268e-03
-2.103608136190911887e-02
4.039163387462576041e-03
4.909229429991435016e-03
3.073315043416079487e-02
2.334611845991300776e-03
-7.992525678346400209e-03
1.555395040744648322e-03
-9.816926624204479895e-03
1.131937444015485364e-02
1.592203554148243286e-03
4.335699410607327803e-04
4.985881103741148651e-03
-6.814800637482387388e-03
-4.565169894343705861e-03
1.185128965249477445e-02
8.812472398853816308e-03
-8.756862275083970165e-03
4.498304268315475585e-03
-3.970692464594922054e-03
1.118692702472762548e-02
-4.533476103960814609e-03
6.128432953259052053e-03
-1.118441945111202374e-03
1.203698285731839498e-02
-4.629470415756171790e-03
-2.289928560056450971e-03
8.872148006376088733e-03
-2.074707921621155721e-02
5.669884564315588217e-03
-5.925997965331333654e-03
7.148867177855004751e-03
-1.132831614430914596e-02
3.854833942103274083e-03
1.128911698416282770e-02
1.522563260982302824e-03
-1.611727422379144112e-02
-3.629258579383923440e-03
-1.530762441114496067e-02
1.335600185537180740e-02
3.376144432052053182e-03
9.409218172280277293e-03
1.330354865431129102e-02
-1.316474839767074051e-02
2.136487312249939728e-03
1.458443207813055892e-02
-5.943683836630610229e-04
-5.425141835011118921e-04
-8.194107892656886730e-03
-4.403701024470645445e-04
-1.179765424055724543e-02
8.901617371187303673e-03
-3.051397372273233037e-03
1.253814449747762266e-02
2.155734872130129695e-02
-1.914099258506091888e-02
-4.325633068927055638e-03
1.603633700471404286e-02
1.890251790125137103e-03
-2.176537689090931454e-02
1.963159901975370519e-02
2.174748360516171822e-03
1.017290838918071677e-02
1.612569699412709154e-02
7.152748788227487192e-03
3.897794765521914520e-03
3.128706315898658122e-03
-1.851590042021978438e-02
1.741965117244120495e-02
-1.022641908099726320e-02
-1.273304968483409891e-02
-3.184827711932829847e-03
5.731511593498533202e-03
1.733718763391884493e-02
-1.099882549991872474e-02
-1.910192379671099040e-03
1.150766183388154951e-02
5.910566159026253014e-03
6.199348160028327753e-03
-1.900640389178977555e-02
-3.591420217162719780e-03
-1.813312372937866436e-03
-1.767772490216823218e-03
-6.167924886764556726e-03
4.270169985821322886e-03
-4.737110888909231050e-03
7.755063120909178043e-04
-1.382347001609592931e-02
1.962745736579905517e-02
1.665128638079933776e-02
-2.031216740688128637e-03
2.099874965408732828e-03
6.592560776758268730e-03
8.352014957931778658e-03
-1.107640092074717308e-02
2.754586835480051302e-03
-2.160750951524037424e-03
-1.017614423360957421e-02
1.471424263708315423e-03
1.417915889984578542e-02
4.209213152184983209e-04
-1.569379019518351778e-02
-2.970967794039929347e-02
-2.282221059897138107e-03
5.529792452934542690e-04
2.256475479764063694e-02
2.189930618382377944e-02
1.590639302647816559e-03
4.014080167265817248e-04
8.309184605229807952e-03
5.624484453961079572e-03
-7.334260351614519183e-03
4.010422725473530674e-03
1.416441020937158138e-02
-5.247815460473143415e-03
1.191119084026191766e-02
5.369714496067492897e-03
1.296674756842112336e-02
1.057575900579246948e-02
1.197827524382728479e-02
-4.033745978881442956e-03
-7.756548503148578619e-03
-5.083743965472406826e-03
-1.961964366115252073e-02
5.852081669925254456e-03
-2.286686032115667344e-03
-1.713586347235061119e-02
-1.173778757027578099e-02
-4.539436920944849019e-03
-3.584570679906814994e-02
1.381594616358804324e-02
2.809566197057100125e-03
-1.659763432451113324e-02
-5.782766739384815474e-03
3.594966858616456366e-03
5.337222242215096911e-03
-2.042117109554671302e-03
5.315644692526523551e-03
2.155105982127809242e-03
4.639017084935350907e-03
4.003024762143516692e-03
-1.593743803010155141e-02
-1.676266487437969369e-03
1.705478117346559408e-02
1.343144921464727894e-02
1.389276745701845811e-02
1.815187107541043135e-03
9.585823263488692930e-03
3.753234148193305541e-03
-1.527823890671435939e-02
4.423501296265417403e-03
1.186908269950921746e-02
1.690595739125665131e-02
2.733628815394756155e-03
-1.710954795503253495e-02
-7.378092801425153828e-04
-1.255442122232315692e-03
1.683486579339748407e-02
7.822664708681892690e-04
2.221621383947167822e-02
9.259286176729660672e-04
8.836817385221388058e-03
-1.501858191271234280e-02
-2.896059542036540958e-03
1.104188679976039061e-02
1.937379398236048662e-03
-2.879689556892932323e-02
3.181033167561086745e-03
-1.522269474734222992e-02
-8.776628201831079487e-03
-1.442858374475264327e-02
-2.040075463391045549e-02
-7.455832780822704148e-03
-7.913434138804927194e-04
1.788644826419357250e-02
4.777104544366383466e-03
1.174851362458916720e-02
-1.315287172677114327e-02
6.170698239414907672e-03
1.483167374141915532e-02
-9.958358235110671003e-03
-1.039451446235813842e-02
-3.877560654715231196e-03
1.048171915426225967e-02
-9.404225843381262828e-03
-1.415928293366416381e-02
-1.173790736086782055e-02
5.073676045080977200e-03
-8.360522329099423500e-03
1.444876093637265276e-02
-2.969957605583782578e-02
-1.240728669188274555e-02
1.786949223516666463e-02
-4.679380467688177593e-04
4.731792185759600700e-04
-1.358425675237765091e-02
2.303032481674504445e-02
2.242730204241248984e-03
-1.478874698176197745e-02
4.587977393872493675e-03
1.044512991676088340e-02
5.184033773614107887e-03
4.301576609926471839e-03
-3.631128424913479362e-03
1.581094484292153504e-02
-8.854302136447222971e-03
9.777891157011216888e-03
3.369439061251974094e-03
1.020225708297320399e-02
1.144356130716197781e-02
1.604624346560000470e-02
8.131004498063209435e-03
-1.672503985479531496e-02
-5.048593390046417564e-03
-2.053301813986065788e-02
1.571076318076686587e-02
2.457179261072186052e-02
-6.828034804986824781e-03
-2.197376343765957557e-04
-1.708885946829439423e-02
5.896893840233146354e-03
6.959500308199282476e-03
-9.436970525884876698e-03
-6.115489515631180109e-03
8.074468184131551596e-03
7.407290345309295448e-03
-6.156737558102134619e-03
7.396950456196783701e-03
7.571699421907622865e-03
-3.623887489618866399e-03
-7.317152533754481096e-03
-1.399519774719965720e-02
1.112699193095892033e-02
-1.476813723138687209e-02
-1.798162184078230807e-02
1.348427126936467546e-04
7.496440627225139063e-03
3.919874969767641465e-03
7.331133848298188732e-03
1.336500353099357927e-02
4.784864527446835124e-03
-1.500680157137093164e-02
9.118465200206950921e-03
-2.097163014676011947e-02
9.540072858045273857e-03
2.830146079242862669e-03
3.685816197228656763e-04
-4.408976532363460821e-03
-9.658667121022986024e-03
-1.956870117535059253e-03
4.690153079887191337e-03
-1.443087705550106722e-02
2.318142482738024673e-02
2.274701659312724014e-02
-4.491365197467542085e-03
-1.210859673949794824e-02
-7.708831678058339701e-03
4.707549982671149422e-03
-5.065605669157175785e-04
-1.307905031160043995e-02
4.892483695743860515e-03
7.214660553132540115e-03
2.897656807172232021e-03
3.788533412820250818e-03
-3.083973678110111735e-03
1.159995545051025270e-02
-1.902766133140196270e-02
-5.887758870049821999e-03
9.201302790063699971e-03
8.814437105183339088e-03
-1.112556116178935878e-02
1.326791424489729733e-03
-4.802929697909741336e-03
-6.197014065017042786e-03
1.729739561830213879e-02
4.255895734651887058e-03
6.460480700435016627e-03
6.296309020956457857e-03
-8.919330475518605014e-03
-1.224333285893903361e-03
2.231490202006537055e-02
-1.739825675033920480e-02
4.588499087248960016e-04
7.301577285401599990e-03
-5.385268257632199775e-03
1.183645151385639624e-02
-6.181681677506709223e-03
-6.014670779682533552e-03
-8.928073172241366914e-03
9.065331425279436056e-03
-1.581236509937607171e-02
8.221874621149462270e-03
-1.240723077925592541e-02
-9.754882083788510294e-03
6.815100186179284814e-03
1.046694786782310232e-02
-1.045969860517744279e-02
3.252160985560589336e-03
2.665979488889856641e-02
-1.683645466290987006e-02
-3.650672379509708153e-03
-1.599102108612158579e-03
6.723151063775738290e-03
-5.027657538161929562e-03
-7.047380741956685984e-04
3.586116409409237718e-03
1.001835938963537009e-02
1.274613355614051015e-02
-3.515480072391021643e-03
-5.422639542157165447e-03
1.391254028893709922e-02
-7.615985499020096541e-03
-1.304873755146499642e-02
4.678542930189584156e-03
-2.299029092848808853e-02
1.565591103701564207e-02
6.659432926998322573e-03
-1.947417250901702090e-03
-2.071141144949379190e-03
-2.002847971788298750e-02
1.359073090879052773e-02
3.245684745812689800e-03
-8.668104129736304425e-03
-3.070755740925664237e-03
-2.273300153691905010e-02
-2.386908552028351935e-03
1.728848474958197615e-02
1.063985334056228790e-02
4.422518736516449674e-03
-7.195670061114625010e-03
-9.706064951728814172e-03
9.849061650754400987e-03
4.983218468026999297e-03
-1.134866753433070446e-02
-8.476624928967155248e-03
1.061108303364596307e-02
-9.602514188953208477e-03
-1.768743732688714092e-03
-1.973782846855617196e-02
1.085994192641668785e-02
-1.674599541653755408e-02
4.819709283967016714e-03
-1.335693193480073926e-02
-1.266267584634781646e-02
-2.287518803182385027e-02
2.096073542438897652e-02
-1.333843853421297007e-02
-4.461042237200179769e-03
-1.119694613890573863e-02
-5.146807434962439969e-03
-5.758231084356430635e-03
-5.424692191486907115e-03
-5.969427230360061128e-03
-3.153632243044367581e-03
7.997634786758602704e-03
3.481394639562455581e-03
2.326649593615047820e-02
7.123396628798054145e-03
-2.177069769929056847e-02
7.349541952744993376e-03
-3.396093612741155759e-03
5.439381544019627167e-03
-3.775210126779208857e-03
1.487645577053887253e-02
-4.613342973885966106e-03
7.202642022886098817e-03
-2.715928044663930806e-03
-8.102649694672286670e-03
4.368271223769999885e-03
1.328807245771991379e-02
-1.418253537316709056e-02
-2.294784092712043658e-02
-6.626951893147469026e-03
-3.526519699668036710e-03
8.510849406785833335e-03
1.540771509362908256e-02
9.839027014479796024e-03
-6.002730705361089374e-03
-1.806731587896286823e-02
3.822071138261350087e-03
2.325963260533165256e-03
-1.084976153509573105e-02
-5.077906840829973442e-03
-3.728725875477798338e-03
-2.387933923560366795e-02
1.217652668266760822e-02
-1.326343751719546299e-02
3.582581200821664466e-03
-1.515255749676619121e-02
-1.539253425540172693e-02
-6.114796823885298993e-03
9.105320027032556829e-03
-1.703623206793530246e-03
-4.832752574213516200e-03
5.921439129454314151e-03
-9.554074286936553584e-03
1.777572438955784054e-02
-8.804480323506242573e-03
9.540818378125743779e-03
-5.837777500136151834e-03
-9.165802638950549391e-03
7.841388870274763195e-03
3.681540542413505243e-03
-6.100595850363911554e-03
1.327522258570752386e-02
-1.485155559074011720e-02
8.886335131264954182e-03
8.122395500478565844e-03
2.827944406158726214e-03
-1.270289088042809642e-02
-2.378353182379673580e-02
2.655898875990731628e-03
-2.633273533039608323e-03
5.115853193813222483e-03
3.825647920709382595e-03
5.471194053742854321e-03
-3.236067441643909401e-03
9.358529722781405019e-03
8.521975386422474957e-03
1.360499240402567034e-04
-1.656619498796057383e-02
1.251941484502517958e-02
1.095122502637544543e-02
6.431822482947555444e-03
1.068176091857764558e-03
8.282112150628052893e-03
1.263738745176058373e-02
3.013289567470145685e-03
3.678990851654802708e-03
7.691105467306835752e-03
1.441081697179707327e-02
-1.144445195315851871e-02
7.045407720909888268e-04
-3.094363183219935899e-03
1.926681937526718638e-02
-8.439548004804182935e-03
7.297889805743409605e-03
2.538152300772553507e-02
-5.334607716061442670e-03
-1.787535902193777490e-02
8.730501916113787148e-03
2.588449090342799172e-02
-7.028843326991338417e-03
-7.154726071878123386e-03
2.389611361784707913e-03
-5.924517716530042569e-03
5.240645590476288897e-03
1.419324930380240664e-02
6.251825137488386912e-03
-1.256873737382417297e-02
1.165603484850871729e-02
6.239500274662891643e-03
-7.444337375078437583e-03
-6.385670495829874095e-03
9.828410522489236870e-03
-1.722439224430100460e-03
-4.122795191747261577e-03
-5.371951346635431973e-04
4.347060296240316812e-03
1.949734153081392890e-02
-3.126743989946213081e-03
-1.741148776920293378e-02
-5.740088886872267426e-03
-6.407909964497244051e-03
-1.416309375323602376e-02
-2.795690887287064982e-03
-1.408280647774132546e-03
6.181990101495604510e-03
-2.378449687414049656e-03
9.603397108320459868e-03
-1.046713004155064644e-04
-6.993014763022674211e-04
2.244760432678758431e-03
1.276616223871351093e-03
-3.169165111659019967e-03
2.557956646033015397e-02
-1.272975043412255015e-02
2.365612972528137806e-02
1.256590441268440328e-02
4.777991380012246159e-03
2.545298020830157569e-03
1.169244676700445865e-02
1.604084735164174394e-02
9.592669534695646982e-03
9.326320325606082817e-03
5.137830193955212482e-03
-6.392425781849356281e-03
-1.476143168507641594e-02
-5.267279170461623694e-04
-8.793885187868100833e-03
-3.229545479581507651e-03
5.519946379864897751e-03
-1.217290463371425643e-04
1.285397608141231746e-02
-1.389820642860216046e-02
-2.769717930052485646e-03
-4.314519323412794975e-03
7.681708692494635185e-03
-2.535645770603945498e-02
-1.825689631928142757e-04
-9.326552675524880931e-03
-3.600749054097364919e-03
1.334498225528379586e-02
1.602586815235917950e-02
-2.161773086941587430e-02
-7.579262455442320814e-03
-1.108933891407866239e-03
-9.006751637041360975e-03
9.714673841721099129e-03
1.162130987785264108e-03
-1.747619943136324155e-02
1.038236534218838283e-02
1.245167263624271346e-02
-1.420233386554063670e-02
1.951190850339196495e-02
-4.839508824321649312e-03
1.740799881183434285e-03
-8.546803940566557317e-03
2.446245767670527510e-03
-9.488659116659182297e-03
-1.466270252185023805e-02
-2.160363100828188027e-02
2.434306341886878847e-03
9.344746900739574202e-03
9.132270502283228522e-03
-7.752312374884230348e-03
-3.646268535700450831e-03
4.197367023192406787e-03
1.694124757596268682e-05
8.159239791240027045e-03
-2.181497923574052863e-03
1.179058535965650523e-02
2.374668249634350609e-02
-7.113019356378763244e-04
2.867344428968514325e-03
7.305584385010759768e-03
-1.084850838223497781e-02
1.943148059447487655e-02
2.608295840326393597e-02
-2.368370910512242536e-02
-2.050798162826762347e-02
-6.955292834567142896e-03
3.120306276368897160e-03
-4.018795524653192425e-02
1.635294417705977083e-02
-3.288461066974653069e-02
3.654103393229247293e-02
1.227781569255296037e-02
-5.085334826721576128e-03
-2.019346220435592511e-03
-5.154295286336167160e-03
-1.893028327080495399e-02
2.858295002746254893e-02
3.136969324126551422e-03
2.280745834779424053e-02
-1.822914029137542857e-02
-1.824924177614315607e-02
-8.696399004686038506e-03
3.134682308455530308e-02
-7.056787499667039644e-03
1.519925821397642707e-02
-3.639541893962067176e-03
1.280571610691847578e-02
-3.134471519302196169e-02
6.359378519190833287e-03
1.125011023934614079e-02
-2.312258319581209087e-02
1.854253389137719074e-02
-3.278729189325112203e-02
-2.102661772473680621e-02
2.002142712307244943e-02
2.832105272399598750e-02
-1.339286107319567071e-02
5.865125882641828228e-03
3.198115063838202765e-02
-2.117076312390986370e-02
3.060130637046371005e-02
-1.087202393170487100e-02
-2.106911239253372176e-02
-4.843628514242755145e-03
2.023467066479328266e-02
-4.483617001151175840e-02
1.037822768319490024e-02
-1.877560314063907816e-03
2.188269485952126087e-02
-2.667749872570086486e-02
1.117498183123442380e-02
-1.584331013620454698e-02
-2.172869884841790653e-02
-3.130280832303006938e-02
-2.205196493635391136e-02
2.823122088339735658e-02
-5.324879961633086772e-03
2.027277686940750882e-03
-2.428758589341763544e-02
-2.206824802660213233e-02
-2.683993282349458193e-02
-2.796012362958434291e-02
-1.614126673793189401e-02
-2.133705175426852188e-02
-7.305139934783769912e-03
-2.431833443239854106e-02
-3.220124336637024409e-02
-1.658595140513293917e-02
2.857603180022942960e-02
-8.865029021810282711e-03
-2.271407318216501353e-02
1.752432936598648239e-02
-2.149072038709259891e-02
-1.397350245511064758e-02
-1.499402412955108330e-02
-1.867456951033716339e-02
-3.879391566759557430e-02
