-4.471946666297747092e-03
-4.469857448215816716e-03
2.356361506476483195e-02
-4.471711986967071180e-03
-4.471096262492034110e-03
2.309974735918251393e-02
1.429023827486299719e-04
2.227015039441805622e-02
0.000000000000000000e+00
-4.466633567029633552e-03
1.657338987302721736e-02
2.432601366652474562e-02
2.393459347815698329e-02
-4.471783171216134160e-03
-2.983292748888807973e-03
1.387226311170312865e-02
0.000000000000000000e+00
-4.471786290913683931e-03
1.047098228206721007e-02
-8.899131863845388679e-03
0.000000000000000000e+00
-5.717596895340505865e-03
2.311249271079002937e-02
0.000000000000000000e+00
-4.470372092443993667e-03
-9.298260194199117756e-06
-4.471508577376901404e-03
-4.467776345885978405e-03
-4.466780698769703614e-03
4.466579401579899578e-03
1.713341872772047858e-02
2.328170936267690699e-02
-4.471479173284772374e-03
-4.470478033792799240e-03
2.235006768950308434e-02
-4.469571247125145308e-03
-4.471409290468906714e-03
2.440317430250624198e-02
0.000000000000000000e+00
-4.471467722115574604e-03
2.604189843416570768e-02
2.468479703783011889e-02
-4.471441395903353981e-03
-4.471636184436697872e-03
-4.471510864866227834e-03
-4.471528828609338917e-03
-4.470340559392862491e-03
-4.471492563779213072e-03
-4.471894385103549439e-03
2.527401916010195079e-02
-4.469650054955779002e-03
-4.471282006639029638e-03
-4.471700830753985029e-03
-4.471126044056608802e-03
-4.471643698444918193e-03
0.000000000000000000e+00
-4.471784443544296259e-03
0.000000000000000000e+00
-4.470017721982678244e-03
-4.443344890364594665e-03
1.061956877170357715e-02
-4.471476440752281296e-03
2.398836188748939419e-02
-4.469500772737000638e-03
