-3.518276004966514048e-02
-1.862704150144663465e-02
2.380819380824312353e-02
-3.326928077022273111e-02
-3.152644095534102436e-02
2.504777064515870469e-02
-1.878916885941488146e-02
2.756883748721869823e-02
-3.231179398840037381e-02
-1.311655217078004122e-02
3.304889463851437559e-02
2.657615475498386129e-02
3.121481767385464803e-02
-1.590260434966058248e-02
-1.901148793811374346e-02
5.478954442935756938e-03
-2.074482142760300865e-02
-1.941589437672864779e-02
4.308319745079811081e-02
-2.764444031989350681e-02
-1.672727528986653681e-02
-1.238390731872768095e-02
2.105006787744661059e-02
-2.796368804753961504e-02
-1.055436976868685296e-02
-2.557637191113507416e-02
-1.196603592648068197e-02
-2.736233182264061550e-02
6.016588341647966659e-03
-8.512781167048229930e-03
3.046179716951565725e-02
6.973770436584159245e-03
-1.529170485041781314e-03
2.459412597950564119e-02
3.942333428948536361e-02
-2.770697922848014069e-02
-3.461957367787302231e-02
4.893273509319311099e-02
-7.099486552740823936e-03
5.522408909185312891e-04
3.707187043859410530e-02
1.032363133866827376e-02
-1.607371293379527069e-02
-1.158892989402046832e-02
-3.103455931586676653e-02
-3.064825031130806454e-02
-3.610497240596275553e-02
-2.766050182600080995e-02
-2.549898351732766619e-02
1.526537743655411762e-02
-3.161364979288827648e-02
2.873846235940290088e-03
-1.617726853077875240e-02
-2.988514804962438126e-02
-1.351262432568168213e-02
-3.457794269349197258e-02
-3.507245384926901965e-02
-7.424731998190355411e-03
-2.089778568550803087e-02
-1.132277039340276589e-03
1.419851601485768930e-02
-3.082313710708575391e-02
1.955962615344307085e-02
-2.639581333642359098e-02
-2.041528744019203978e-02
-2.873636091376193316e-02
2.738047288968962351e-02
-1.722212716985648678e-02
-2.176551972384540776e-02
2.656630200238565068e-02
-1.956717565085135113e-02
1.996683963057312161e-02
-4.255482976550889473e-02
-3.745291825126535745e-02
3.923592639851622432e-02
2.419892087393208865e-02
2.377556340917019728e-02
-3.274419340062047212e-02
-1.547447910319456679e-02
4.249211395052438639e-02
-4.502207545824520041e-02
-1.697534508315087093e-02
1.893585651059451203e-02
-2.563399388448528091e-02
-3.032153547617064474e-02
-4.007775637112750283e-02
2.743342785289909491e-02
-1.237777627061079425e-02
-1.880164315919691589e-02
-2.183137197685111261e-02
-2.920989491096153898e-02
-1.969984440644441392e-02
-1.708143020384624705e-02
-2.590288587051583352e-02
5.011023283122087273e-03
5.444901043855268630e-02
-3.225942520936779523e-02
-1.650166448542242023e-02
3.885924484488171432e-02
-1.280412745277736963e-02
-2.965343788767789771e-02
9.051690135033098675e-03
-2.840450475553655749e-02
-1.437066392956206327e-02
2.930112354618827353e-02
2.503886789736048044e-02
-3.183612375281522772e-02
-3.411873456431908924e-02
-3.169945058771007212e-02
-1.961727862555675758e-02
-2.656613167795328356e-02
-1.355715080804016127e-02
-2.539104353416005502e-02
3.214217341508820991e-02
-1.758638431645271130e-02
-2.804421686658940469e-02
-2.685045948558965889e-02
-4.004816366619450702e-02
-2.252536093219120739e-02
-4.802973603073328046e-02
-3.394328830438032851e-02
-4.096920208429746108e-02
-2.487473589960583625e-02
-3.250645655649560262e-02
8.323442630818574800e-03
-3.404302758836999510e-02
3.493580463839837669e-02
-1.942845870378146628e-02
1.950417080707767675e-02
3.462326310737735835e-02
-1.920721516599005127e-02
2.652202146235186145e-02
3.748614081701736461e-02
-2.559818562019906818e-02
3.090559906355669351e-02
-2.334770444175939333e-02
3.981330501126036092e-02
2.840963172608345494e-02
-1.861068827187059224e-02
-4.061067101972623550e-02
-6.201049639212226350e-02
2.417945825319734246e-02
4.060685706777587833e-02
-3.275452292327049597e-02
1.622349938710487480e-02
3.237450856217535811e-02
-6.565092991986612447e-03
3.132562476442628252e-02
9.433361249567728812e-03
3.368004148077374804e-02
-3.776318062741444714e-02
1.591765844268246133e-02
7.347250830446299015e-03
3.373036803317094878e-02
2.078299567401939441e-02
2.954055504969027232e-02
3.845452540988655854e-02
3.138392519871564812e-02
-2.752035217388527216e-02
-2.935908313173546391e-02
3.105839730328337558e-02
1.369699368983005525e-02
-3.546139410008460752e-02
2.032117659009884114e-02
1.687700732480998042e-02
-2.632813219426580198e-02
3.663744043653006932e-02
1.560741738846370061e-02
-5.250438854027519343e-03
-2.929484918081095776e-02
3.283725795130477965e-02
3.558643360210102941e-02
3.839527404311387452e-03
1.725078329380807032e-03
1.322607075507578438e-02
3.556697716505494156e-02
2.491476690710501748e-02
-5.608606604742075868e-02
1.151531140372230415e-02
2.624009747510785279e-02
1.566762021649242831e-02
4.225740614365409986e-02
1.633288004440471702e-02
4.682745414393512523e-02
1.002646061632969307e-02
2.449558322379736044e-02
9.117942524358033096e-03
7.922589732934385773e-03
-1.856754719793513378e-02
3.007228354296099387e-02
-3.134877034673204388e-02
1.243613410859085826e-02
2.023140728841867422e-02
3.581769531944608426e-02
-1.069362379896725800e-02
1.473031976863418448e-02
4.096426315019197073e-02
-2.635473286228454115e-02
3.122792253588724948e-02
-2.411378083279206927e-02
2.517926710093288528e-02
3.842047767583217643e-02
-2.969238057864058769e-02
-3.079150686622837002e-02
-4.014325837061170910e-02
3.423879601466531253e-02
3.382315232634623692e-03
-3.039548816096743211e-02
2.730675340411147303e-02
1.254940132646871834e-02
-3.420981286131853649e-02
3.552041795976922794e-02
2.379074027050630952e-02
2.451254427937649139e-02
-3.211277155885303852e-02
2.618875700712302093e-02
1.530206194942226178e-02
2.198742225521866864e-02
1.390962987251204500e-02
2.016036445262055915e-02
2.114242952343550752e-02
2.670714896462231258e-02
-2.041747137682497007e-02
-2.252652917803207172e-02
1.889720788675451971e-02
3.235347357310544569e-02
-4.498224404552088329e-02
1.652468565055387542e-02
2.494078667310761430e-02
-3.579246610486618713e-02
2.331292078185460623e-02
2.306202417706785385e-02
-2.999691261575359799e-02
-3.699367757531233508e-02
1.399465817260973216e-02
1.739046701814030843e-02
2.744276724186753974e-02
2.204514218739786827e-02
2.274266748210652597e-02
3.105713330592848459e-02
1.848029488343645374e-02
-2.913375004328117371e-02
1.570867105105205885e-02
1.700697047081433169e-02
2.536719427636026022e-02
4.091967923946728675e-02
1.811131878397463993e-02
2.897831090085546679e-02
2.799652857259731994e-02
3.200639065280314055e-02
2.686903751058909023e-02
7.129815502471310504e-03
-1.721841696942283395e-02
2.349322914768264825e-02
-3.941684615256257213e-02
2.124699222274385388e-02
3.389781105652544396e-02
1.688761500109727670e-02
-1.621703896058724476e-02
2.063578776352420485e-02
3.655560067417242681e-02
-4.263663587646204095e-02
1.813041121197105088e-02
-2.497383039581333591e-02
3.468430901252452653e-02
3.741902762257778847e-02
-3.186409635001213186e-02
-3.221259605241639373e-02
-3.261583812377878699e-02
1.021299016697737108e-02
1.966316491237222325e-02
-2.082171172589528454e-02
2.253668049481237501e-02
1.143591020571055501e-02
-3.103869724833966878e-02
2.246842342137736134e-02
4.080805382177180030e-02
1.151061804888872664e-02
-2.532313286703323160e-02
3.572169763916600155e-02
2.900117726138269625e-02
1.231136808050181317e-02
3.511217819314264507e-03
2.061801731828931047e-02
4.193382498933720393e-02
2.878469526614858831e-02
-3.294176162466504881e-02
-2.588885708400753480e-02
1.347051480691932937e-02
2.081659082921377690e-02
-5.867089656247845980e-02
1.428979630478070459e-02
1.116176565079566620e-02
-3.071650717778834708e-02
2.888674915188810602e-02
1.852099149188930760e-02
-3.613645559454719408e-02
-3.300442545505888337e-02
2.738311082317011064e-02
1.572408811156227049e-02
1.868681232466789383e-02
1.278005528518497656e-02
1.280907581348017174e-02
1.182692457599936534e-02
2.874502958128815136e-02
-3.399886865938048230e-02
1.667048828704598487e-02
3.097520907588536404e-02
3.520974354974538284e-02
4.339736229101791298e-02
1.948361491603503581e-02
2.008694623904516349e-02
2.935354747813727003e-02
2.121622242743871969e-02
3.347890800484468188e-02
1.546030683897542043e-02
-1.741041288594673969e-02
2.991133200518238458e-02
-5.134187025945226301e-02
2.519209492290037586e-02
2.831090176243488202e-02
3.117327747933369350e-02
-2.369443511123776186e-02
2.010359776742314322e-02
5.238687672489828612e-02
-3.641262574935721225e-02
5.976295872700059311e-03
-1.569815642002637956e-02
2.636075113242189460e-02
2.379288200015379495e-02
-3.356569943572711157e-02
-3.298038714119625597e-02
-3.822645066107026313e-02
2.920390721280054919e-02
1.751400037980604951e-02
-2.250898761685574817e-02
2.700604415218864351e-02
1.973122142559967027e-02
-1.112974853760420949e-02
3.667774839965846911e-02
1.846351248031760303e-02
4.735280982569937264e-02
-4.031714458343731156e-02
2.178696090065755653e-02
1.489959386797541988e-02
1.641761394364956925e-02
2.573921046047311298e-02
4.714928029433292783e-02
1.280774721351388666e-02
5.866130210779624959e-02
-1.776030696587832178e-02
-3.110392400392266929e-02
4.455032890210878366e-02
2.771324777750489021e-02
-4.036949644995935227e-02
2.074219353740345412e-02
1.961934725455614925e-02
-4.758675157273544593e-02
3.580660543714268146e-02
2.165878621145592153e-02
-4.085629324099043086e-02
-3.843038710624258752e-02
2.105109091531415233e-02
2.817484404415600968e-02
2.116193103648934815e-02
1.068095141426688224e-02
2.405358229962857586e-02
2.274754635990259427e-02
4.623062442481296053e-02
-2.996069662668311706e-02
2.605308211028088336e-02
4.039469406672359375e-02
2.692971665494121175e-02
2.551829938458943445e-02
2.542663436091784426e-02
3.231089595913107237e-02
2.016843657934680456e-02
1.934831846557485274e-02
1.830059392864937656e-02
3.491570540180142200e-03
-1.645314417030354498e-02
3.614164012435670814e-02
-1.946318547212592606e-02
2.658980499471588765e-02
-2.816979597460855453e-02
-1.644874480936437885e-02
3.241080561681804195e-02
-3.453944649359350777e-02
-2.245097166610384928e-02
4.327214057406267300e-02
-2.515904097394154951e-02
2.922035545785401506e-02
-1.663381299127648927e-02
-2.405341494057697954e-02
3.420115669127558183e-02
3.039600506656247453e-02
3.443838669052690094e-02
-1.295065784186957142e-02
-2.142507957314395556e-02
-4.968174965591246398e-03
-2.429719379598711468e-02
-3.863634981013056025e-02
4.453664567861528173e-03
-2.903024895702958214e-02
-3.072716235768184478e-02
-1.455629700341067728e-02
5.172407382555196942e-02
-3.771854703209077952e-02
-3.606266706500388386e-02
-7.687473562504387910e-03
-1.236340056828064658e-02
-2.103985356560610781e-02
-1.141148405553232305e-02
4.718916687459833934e-04
2.338267641183367981e-02
3.061481536599552911e-02
-1.762118157027240187e-02
-3.372031784751358674e-02
2.354327018370047306e-02
-1.236257251501837566e-02
-3.145059204372462058e-02
3.181250097204323807e-02
-1.895832385070763543e-02
-2.152392606522496310e-02
2.589364081502943532e-02
2.308881575020779731e-02
-2.119860148268588179e-02
-3.162382168185875336e-02
-3.902003133851555949e-02
-2.409047187856842159e-02
-1.360809644365054000e-02
-1.586476015579049020e-02
-2.147810390842527783e-02
1.378539248781341514e-02
-1.050865664695370405e-02
-1.310387026602565647e-02
-3.286435904488692328e-02
-4.084404383378290732e-02
-3.598068671063804624e-02
-1.658113777576484746e-02
-2.812268153711659432e-02
-3.006152592328062423e-02
-1.418301000183799614e-02
-2.735311229897091981e-02
2.663985743436482825e-02
-2.095501388247302671e-02
3.561818000669738499e-02
-1.564079977470041877e-02
4.011029179703221731e-02
4.265617855391443114e-02
-4.728157444825716732e-02
5.681511577326838446e-03
2.549334522779642120e-02
-4.271476654726728134e-02
1.894444053964343400e-02
-2.826737217873072361e-02
2.260467921853709025e-02
3.456423222209937390e-02
-4.590062974757670028e-02
-4.025137866769203099e-02
-3.186700665330929189e-02
2.780418644325693273e-02
9.166448684461739674e-03
-2.864307161932206497e-02
2.618863225127770339e-02
2.094178290234446557e-02
-1.355324957354739693e-02
3.325781247741042140e-02
2.134365367766947325e-02
4.138289207408255010e-02
-4.566776314008936383e-02
2.805232362577418301e-02
8.988419951756969339e-03
2.508044805457609189e-02
3.131188144431346077e-02
3.140250101131291521e-02
2.501080887177181342e-02
1.889977263474513017e-02
-6.370688068265899229e-03
-5.008490234883667541e-02
1.805179486128049085e-02
2.278511466196607438e-02
-2.260518613761578269e-02
2.758975041128631372e-02
1.700047864084403004e-02
-4.901061182164417190e-02
1.440543189301373740e-02
3.153596358741567185e-02
-2.218340778880903766e-02
-4.248919099818496831e-02
2.342048325518559029e-02
6.002570802352819208e-03
3.095372414143724576e-02
3.422545770982082791e-02
2.068127094573281310e-02
3.405960843662415166e-02
1.958223004963936115e-02
-2.820898985390571378e-02
1.126482062211163655e-02
4.522619731364525830e-02
2.604077947933731985e-02
2.355666736770722913e-02
2.316162529786901583e-02
4.271733392858868134e-02
2.326850904928177630e-02
3.586157760772760994e-02
-2.043460768942610304e-04
1.290186281704184569e-02
-7.437334180288659308e-03
3.059010378123905999e-02
-2.795702143725913025e-02
1.562967231801757825e-02
-1.660080413700244437e-02
-1.476111894742970949e-02
4.085199141790044758e-02
-2.230028310742572170e-02
-2.561850452986787208e-02
3.713119030168469253e-02
-2.258471860887728035e-03
5.073141307719603033e-02
-3.565383748429454963e-02
-2.541012224228674649e-02
1.025592207992196900e-02
1.282507985350626704e-02
2.142989078627721353e-02
-1.175341293393459240e-02
1.007758357228563315e-02
2.097330083557418304e-02
-2.183097431875410596e-02
-1.914889981850728326e-02
8.385669386701046293e-03
-1.594947624444778556e-02
-2.714872783056239067e-02
-3.383116791997867190e-02
2.989501102330766394e-02
-1.645112435898809372e-02
-1.904743011311807108e-02
-2.067229495516008028e-02
-3.575918824665600543e-02
-2.078466868385856620e-02
-3.096452078853340062e-02
-2.619179456153443095e-02
9.255144897504006749e-03
1.957566283932902010e-02
-3.328390447898989246e-02
-1.872047140979912067e-02
3.792277903410182227e-02
-2.000326223541146545e-02
-1.851675780524040388e-02
1.801486829256348024e-02
-1.566873902350338077e-02
-7.594205064603947765e-03
3.316018187578004955e-02
3.687030466353310998e-02
-2.429784240913438961e-02
-1.774367269746737318e-03
-2.033343299278828065e-02
-3.742676856866331697e-02
-1.739765047274691862e-02
-2.361605591814827307e-02
-1.141152771618542117e-02
3.799605531009227211e-02
-2.360188818739612088e-02
-2.791256086042627482e-02
-4.061204296329772034e-02
-2.105694001348651714e-02
-1.296470159667346619e-02
-3.036340682565763852e-02
-2.447636125119673212e-02
-4.391635014048956426e-02
-2.086908111594036608e-02
-1.625243213239899176e-02
4.215844441700358769e-02
-2.250845957779649617e-02
2.765722800215672170e-02
-2.687488162313604947e-02
-1.527843792869072043e-02
-1.796560208665494429e-02
4.862882908215457323e-02
-7.554723637809135535e-03
-3.411799855141721405e-02
2.956968321068179778e-02
-1.365721588284802938e-02
3.653886259952886240e-02
-3.297417141855931572e-02
3.690913812126238747e-03
2.136997583204288190e-02
4.573743810649763541e-02
1.220150627199116308e-02
-1.445957635008632107e-02
1.133263109230572135e-02
7.769912260177135391e-03
-1.700206597977233294e-02
-2.110953938576210984e-02
4.524034069932342250e-02
-1.782756411044624997e-02
-1.600924452326388941e-02
-1.831746539372629268e-02
2.948967144444925720e-02
-3.202823194891814274e-02
-2.528831558604404880e-02
-7.361216087998913131e-03
-3.106548890216830061e-02
-2.185546426851758817e-02
-4.459586438440760886e-03
-1.608140310216267868e-02
2.328595273238286828e-02
2.736711676581676800e-02
-2.206385451725197816e-02
7.485258962497647398e-03
2.915575028580571701e-02
7.330758773912438193e-03
-2.269701209514489795e-02
2.407202713824147314e-02
-1.591477250324504003e-02
-2.194518928636593827e-02
2.350005286288199199e-02
3.474688877567863599e-02
-1.915861476292830129e-02
-2.276224711750513691e-02
-1.205213830114297557e-02
-3.178672383894903808e-02
-2.181081569259406966e-02
-1.279180378094933561e-02
-1.303898144626316688e-02
2.584352237976379404e-02
-3.457670643847481767e-02
-2.348391321495766487e-02
-3.884232933273296801e-02
-2.681830415351132285e-02
5.529703149488270682e-04
-2.231189797893494073e-02
-3.335162645797194042e-02
-2.727524574030635793e-02
-2.875325872758286404e-03
-1.059918759235903979e-02
1.045901258271003664e-02
-6.806067374792230951e-03
3.679018324084841474e-02
-2.368093502799127961e-02
